{"learner":{"attributes":{"scikit_learn":"{\"_estimator_type\": \"classifier\"}"},"feature_names":[],"feature_types":[],"gradient_booster":{"model":{"gbtree_model_param":{"num_parallel_tree":"1","num_trees":"1100"},"iteration_indptr":[0,1,2,3,4,5,6,7,8,9,10,11,12,13,14,15,16,17,18,19,20,21,22,23,24,25,26,27,28,29,30,31,32,33,34,35,36,37,38,39,40,41,42,43,44,45,46,47,48,49,50,51,52,53,54,55,56,57,58,59,60,61,62,63,64,65,66,67,68,69,70,71,72,73,74,75,76,77,78,79,80,81,82,83,84,85,86,87,88,89,90,91,92,93,94,95,96,97,98,99,100,101,102,103,104,105,106,107,108,109,110,111,112,113,114,115,116,117,118,119,120,121,122,123,124,125,126,127,128,129,130,131,132,133,134,135,136,137,138,139,140,141,142,143,144,145,146,147,148,149,150,151,152,153,154,155,156,157,158,159,160,161,162,163,164,165,166,167,168,169,170,171,172,173,174,175,176,177,178,179,180,181,182,183,184,185,186,187,188,189,190,191,192,193,194,195,196,197,198,199,200,201,202,203,204,205,206,207,208,209,210,211,212,213,214,215,216,217,218,219,220,221,222,223,224,225,226,227,228,229,230,231,232,233,234,235,236,237,238,239,240,241,242,243,244,245,246,247,248,249,250,251,252,253,254,255,256,257,258,259,260,261,262,263,264,265,266,267,268,269,270,271,272,273,274,275,276,277,278,279,280,281,282,283,284,285,286,287,288,289,290,291,292,293,294,295,296,297,298,299,300,301,302,303,304,305,306,307,308,309,310,311,312,313,314,315,316,317,318,319,320,321,322,323,324,325,326,327,328,329,330,331,332,333,334,335,336,337,338,339,340,341,342,343,344,345,346,347,348,349,350,351,352,353,354,355,356,357,358,359,360,361,362,363,364,365,366,367,368,369,370,371,372,373,374,375,376,377,378,379,380,381,382,383,384,385,386,387,388,389,390,391,392,393,394,395,396,397,398,399,400,401,402,403,404,405,406,407,408,409,410,411,412,413,414,415,416,417,418,419,420,421,422,423,424,425,426,427,428,429,430,431,432,433,434,435,436,437,438,439,440,441,442,443,444,445,446,447,448,449,450,451,452,453,454,455,456,457,458,459,460,461,462,463,464,465,466,467,468,469,470,471,472,473,474,475,476,477,478,479,480,481,482,483,484,485,486,487,488,489,490,491,492,493,494,495,496,497,498,499,500,501,502,503,504,505,506,507,508,509,510,511,512,513,514,515,516,517,518,519,520,521,522,523,524,525,526,527,528,529,530,531,532,533,534,535,536,537,538,539,540,541,542,543,544,545,546,547,548,549,550,551,552,553,554,555,556,557,558,559,560,561,562,563,564,565,566,567,568,569,570,571,572,573,574,575,576,577,578,579,580,581,582,583,584,585,586,587,588,589,590,591,592,593,594,595,596,597,598,599,600,601,602,603,604,605,606,607,608,609,610,611,612,613,614,615,616,617,618,619,620,621,622,623,624,625,626,627,628,629,630,631,632,633,634,635,636,637,638,639,640,641,642,643,644,645,646,647,648,649,650,651,652,653,654,655,656,657,658,659,660,661,662,663,664,665,666,667,668,669,670,671,672,673,674,675,676,677,678,679,680,681,682,683,684,685,686,687,688,689,690,691,692,693,694,695,696,697,698,699,700,701,702,703,704,705,706,707,708,709,710,711,712,713,714,715,716,717,718,719,720,721,722,723,724,725,726,727,728,729,730,731,732,733,734,735,736,737,738,739,740,741,742,743,744,745,746,747,748,749,750,751,752,753,754,755,756,757,758,759,760,761,762,763,764,765,766,767,768,769,770,771,772,773,774,775,776,777,778,779,780,781,782,783,784,785,786,787,788,789,790,791,792,793,794,795,796,797,798,799,800,801,802,803,804,805,806,807,808,809,810,811,812,813,814,815,816,817,818,819,820,821,822,823,824,825,826,827,828,829,830,831,832,833,834,835,836,837,838,839,840,841,842,843,844,845,846,847,848,849,850,851,852,853,854,855,856,857,858,859,860,861,862,863,864,865,866,867,868,869,870,871,872,873,874,875,876,877,878,879,880,881,882,883,884,885,886,887,888,889,890,891,892,893,894,895,896,897,898,899,900,901,902,903,904,905,906,907,908,909,910,911,912,913,914,915,916,917,918,919,920,921,922,923,924,925,926,927,928,929,930,931,932,933,934,935,936,937,938,939,940,941,942,943,944,945,946,947,948,949,950,951,952,953,954,955,956,957,958,959,960,961,962,963,964,965,966,967,968,969,970,971,972,973,974,975,976,977,978,979,980,981,982,983,984,985,986,987,988,989,990,991,992,993,994,995,996,997,998,999,1000,1001,1002,1003,1004,1005,1006,1007,1008,1009,1010,1011,1012,1013,1014,1015,1016,1017,1018,1019,1020,1021,1022,1023,1024,1025,1026,1027,1028,1029,1030,1031,1032,1033,1034,1035,1036,1037,1038,1039,1040,1041,1042,1043,1044,1045,1046,1047,1048,1049,1050,1051,1052,1053,1054,1055,1056,1057,1058,1059,1060,1061,1062,1063,1064,1065,1066,1067,1068,1069,1070,1071,1072,1073,1074,1075,1076,1077,1078,1079,1080,1081,1082,1083,1084,1085,1086,1087,1088,1089,1090,1091,1092,1093,1094,1095,1096,1097,1098,1099,1100],"tree_info":[0,0,0,0,0,0,0,0,0,0,0,0,0,0,0,0,0,0,0,0,0,0,0,0,0,0,0,0,0,0,0,0,0,0,0,0,0,0,0,0,0,0,0,0,0,0,0,0,0,0,0,0,0,0,0,0,0,0,0,0,0,0,0,0,0,0,0,0,0,0,0,0,0,0,0,0,0,0,0,0,0,0,0,0,0,0,0,0,0,0,0,0,0,0,0,0,0,0,0,0,0,0,0,0,0,0,0,0,0,0,0,0,0,0,0,0,0,0,0,0,0,0,0,0,0,0,0,0,0,0,0,0,0,0,0,0,0,0,0,0,0,0,0,0,0,0,0,0,0,0,0,0,0,0,0,0,0,0,0,0,0,0,0,0,0,0,0,0,0,0,0,0,0,0,0,0,0,0,0,0,0,0,0,0,0,0,0,0,0,0,0,0,0,0,0,0,0,0,0,0,0,0,0,0,0,0,0,0,0,0,0,0,0,0,0,0,0,0,0,0,0,0,0,0,0,0,0,0,0,0,0,0,0,0,0,0,0,0,0,0,0,0,0,0,0,0,0,0,0,0,0,0,0,0,0,0,0,0,0,0,0,0,0,0,0,0,0,0,0,0,0,0,0,0,0,0,0,0,0,0,0,0,0,0,0,0,0,0,0,0,0,0,0,0,0,0,0,0,0,0,0,0,0,0,0,0,0,0,0,0,0,0,0,0,0,0,0,0,0,0,0,0,0,0,0,0,0,0,0,0,0,0,0,0,0,0,0,0,0,0,0,0,0,0,0,0,0,0,0,0,0,0,0,0,0,0,0,0,0,0,0,0,0,0,0,0,0,0,0,0,0,0,0,0,0,0,0,0,0,0,0,0,0,0,0,0,0,0,0,0,0,0,0,0,0,0,0,0,0,0,0,0,0,0,0,0,0,0,0,0,0,0,0,0,0,0,0,0,0,0,0,0,0,0,0,0,0,0,0,0,0,0,0,0,0,0,0,0,0,0,0,0,0,0,0,0,0,0,0,0,0,0,0,0,0,0,0,0,0,0,0,0,0,0,0,0,0,0,0,0,0,0,0,0,0,0,0,0,0,0,0,0,0,0,0,0,0,0,0,0,0,0,0,0,0,0,0,0,0,0,0,0,0,0,0,0,0,0,0,0,0,0,0,0,0,0,0,0,0,0,0,0,0,0,0,0,0,0,0,0,0,0,0,0,0,0,0,0,0,0,0,0,0,0,0,0,0,0,0,0,0,0,0,0,0,0,0,0,0,0,0,0,0,0,0,0,0,0,0,0,0,0,0,0,0,0,0,0,0,0,0,0,0,0,0,0,0,0,0,0,0,0,0,0,0,0,0,0,0,0,0,0,0,0,0,0,0,0,0,0,0,0,0,0,0,0,0,0,0,0,0,0,0,0,0,0,0,0,0,0,0,0,0,0,0,0,0,0,0,0,0,0,0,0,0,0,0,0,0,0,0,0,0,0,0,0,0,0,0,0,0,0,0,0,0,0,0,0,0,0,0,0,0,0,0,0,0,0,0,0,0,0,0,0,0,0,0,0,0,0,0,0,0,0,0,0,0,0,0,0,0,0,0,0,0,0,0,0,0,0,0,0,0,0,0,0,0,0,0,0,0,0,0,0,0,0,0,0,0,0,0,0,0,0,0,0,0,0,0,0,0,0,0,0,0,0,0,0,0,0,0,0,0,0,0,0,0,0,0,0,0,0,0,0,0,0,0,0,0,0,0,0,0,0,0,0,0,0,0,0,0,0,0,0,0,0,0,0,0,0,0,0,0,0,0,0,0,0,0,0,0,0,0,0,0,0,0,0,0,0,0,0,0,0,0,0,0,0,0,0,0,0,0,0,0,0,0,0,0,0,0,0,0,0,0,0,0,0,0,0,0,0,0,0,0,0,0,0,0,0,0,0,0,0,0,0,0,0,0,0,0,0,0,0,0,0,0,0,0,0,0,0,0,0,0,0,0,0,0,0,0,0,0,0,0,0,0,0,0,0,0,0,0,0,0,0,0,0,0,0,0,0,0,0,0,0,0,0,0,0,0,0,0,0,0,0,0,0,0,0,0,0,0,0,0,0,0,0,0,0,0,0,0,0,0,0,0,0,0,0,0,0,0,0,0,0,0,0,0,0,0,0,0,0,0,0,0,0,0,0,0,0,0,0,0,0,0,0,0,0,0,0,0,0,0,0,0,0,0,0,0,0,0,0,0,0,0,0,0,0,0,0,0,0,0,0,0,0,0,0,0,0,0,0,0,0,0,0,0,0,0,0,0,0,0,0,0,0,0,0,0,0,0,0,0,0,0,0,0,0,0,0,0,0,0,0,0,0,0,0,0,0,0,0,0,0,0,0,0,0,0,0,0,0,0,0,0,0,0,0,0,0,0,0,0,0,0,0,0,0,0,0,0,0,0,0,0,0,0,0,0,0,0,0,0,0,0,0,0,0,0,0,0,0,0,0,0,0,0,0],"trees":[{"base_weights":[9.309345E-3,-5E-2,1E0,-5E-2,5E-2],"categories":[],"categories_nodes":[],"categories_segments":[],"categories_sizes":[],"default_left":[0,0,0,0,0],"id":0,"left_children":[1,-1,3,-1,-1],"loss_changes":[6.1866816E3,0E0,5.42E2,0E0,0E0],"parents":[2147483647,0,0,2,2],"right_children":[2,-1,4,-1,-1],"split_conditions":[1.3489815E0,-5E-2,3.1534474E0,-5E-2,5E-2],"split_indices":[35,0,18,0,0],"split_type":[0,0,0,0,0],"sum_hessian":[2.2449587E3,1.04925E3,1.1957089E3,6.8E1,1.1277089E3],"tree_param":{"num_deleted":"0","num_feature":"104","num_nodes":"5","size_leaf_vector":"1"}},{"base_weights":[1.63723E-2,-5E-2,1E0,5E-2,-5E-2],"categories":[],"categories_nodes":[],"categories_segments":[],"categories_sizes":[],"default_left":[0,0,0,0,0],"id":1,"left_children":[1,-1,3,-1,-1],"loss_changes":[6.059391E3,0E0,5.12803E2,0E0,0E0],"parents":[2147483647,0,0,2,2],"right_children":[2,-1,4,-1,-1],"split_conditions":[1.3489815E0,-5E-2,4.017687E-2,5E-2,-5E-2],"split_indices":[35,0,68,0,0],"split_type":[0,0,0,0,0],"sum_hessian":[2.2666306E3,1.0578387E3,1.2087919E3,1.1428331E3,6.595877E1],"tree_param":{"num_deleted":"0","num_feature":"104","num_nodes":"5","size_leaf_vector":"1"}},{"base_weights":[-2.5004053E-3,-5E-2,1E0,-5E-2,5E-2],"categories":[],"categories_nodes":[],"categories_segments":[],"categories_sizes":[],"default_left":[0,0,0,0,0],"id":2,"left_children":[1,-1,3,-1,-1],"loss_changes":[5.779473E3,0E0,5.2622363E2,0E0,0E0],"parents":[2147483647,0,0,2,2],"right_children":[2,-1,4,-1,-1],"split_conditions":[1.3489815E0,-5E-2,3.1534474E0,-5E-2,5E-2],"split_indices":[35,0,18,0,0],"split_type":[0,0,0,0,0],"sum_hessian":[2.2464204E3,1.0553595E3,1.191061E3,6.9326546E1,1.1217344E3],"tree_param":{"num_deleted":"0","num_feature":"104","num_nodes":"5","size_leaf_vector":"1"}},{"base_weights":[-1.8239621E-3,-5E-2,1E0,5E-2,-5E-2],"categories":[],"categories_nodes":[],"categories_segments":[],"categories_sizes":[],"default_left":[0,0,0,0,0],"id":3,"left_children":[1,-1,3,-1,-1],"loss_changes":[5.581382E3,0E0,5.049768E2,0E0,0E0],"parents":[2147483647,0,0,2,2],"right_children":[2,-1,4,-1,-1],"split_conditions":[1.3489815E0,-5E-2,4.017687E-2,5E-2,-5E-2],"split_indices":[35,0,68,0,0],"split_type":[0,0,0,0,0],"sum_hessian":[2.2386748E3,1.0523196E3,1.1863553E3,1.1182393E3,6.811613E1],"tree_param":{"num_deleted":"0","num_feature":"104","num_nodes":"5","size_leaf_vector":"1"}},{"base_weights":[-9.251321E-3,-5E-2,1E0,-5E-2,5E-2],"categories":[],"categories_nodes":[],"categories_segments":[],"categories_sizes":[],"default_left":[0,0,0,0,0],"id":4,"left_children":[1,-1,3,-1,-1],"loss_changes":[5.355119E3,0E0,4.7517578E2,0E0,0E0],"parents":[2147483647,0,0,2,2],"right_children":[2,-1,4,-1,-1],"split_conditions":[1.3489815E0,-5E-2,3.1534474E0,-5E-2,5E-2],"split_indices":[35,0,18,0,0],"split_type":[0,0,0,0,0],"sum_hessian":[2.2129172E3,1.0465001E3,1.1664171E3,6.5591896E1,1.1008253E3],"tree_param":{"num_deleted":"0","num_feature":"104","num_nodes":"5","size_leaf_vector":"1"}},{"base_weights":[3.5153408E-2,-5E-2,1E0,-5E-2,5E-2],"categories":[],"categories_nodes":[],"categories_segments":[],"categories_sizes":[],"default_left":[0,0,0,0,0],"id":5,"left_children":[1,-1,3,-1,-1],"loss_changes":[5.2754385E3,0E0,4.7260083E2,0E0,0E0],"parents":[2147483647,0,0,2,2],"right_children":[2,-1,4,-1,-1],"split_conditions":[1.3489815E0,-5E-2,3.1534474E0,-5E-2,5E-2],"split_indices":[35,0,18,0,0],"split_type":[0,0,0,0,0],"sum_hessian":[2.250868E3,1.0364706E3,1.2143975E3,6.670233E1,1.1476951E3],"tree_param":{"num_deleted":"0","num_feature":"104","num_nodes":"5","size_leaf_vector":"1"}},{"base_weights":[4.9173106E-3,-5E-2,1E0,-5E-2,5E-2],"categories":[],"categories_nodes":[],"categories_segments":[],"categories_sizes":[],"default_left":[0,0,0,0,0],"id":6,"left_children":[1,-1,3,-1,-1],"loss_changes":[5.0075996E3,0E0,4.5930444E2,0E0,0E0],"parents":[2147483647,0,0,2,2],"right_children":[2,-1,4,-1,-1],"split_conditions":[1.3489815E0,-5E-2,3.1534474E0,-5E-2,5E-2],"split_indices":[35,0,18,0,0],"split_type":[0,0,0,0,0],"sum_hessian":[2.2053823E3,1.0333253E3,1.1720569E3,6.624821E1,1.1058087E3],"tree_param":{"num_deleted":"0","num_feature":"104","num_nodes":"5","size_leaf_vector":"1"}},{"base_weights":[-9.159373E-3,-5E-2,1E0,-5E-2,5E-2],"categories":[],"categories_nodes":[],"categories_segments":[],"categories_sizes":[],"default_left":[0,0,0,0,0],"id":7,"left_children":[1,-1,3,-1,-1],"loss_changes":[4.807585E3,0E0,4.560276E2,0E0,0E0],"parents":[2147483647,0,0,2,2],"right_children":[2,-1,4,-1,-1],"split_conditions":[1.3489815E0,-5E-2,3.1534474E0,-5E-2,5E-2],"split_indices":[35,0,18,0,0],"split_type":[0,0,0,0,0],"sum_hessian":[2.1872039E3,1.0323114E3,1.1548923E3,6.717178E1,1.0877206E3],"tree_param":{"num_deleted":"0","num_feature":"104","num_nodes":"5","size_leaf_vector":"1"}},{"base_weights":[-2.3014043E-3,-5E-2,1E0,-5E-2,5E-2],"categories":[],"categories_nodes":[],"categories_segments":[],"categories_sizes":[],"default_left":[0,0,0,0,0],"id":8,"left_children":[1,-1,3,-1,-1],"loss_changes":[4.646074E3,0E0,4.4265405E2,0E0,0E0],"parents":[2147483647,0,0,2,2],"right_children":[2,-1,4,-1,-1],"split_conditions":[1.3489815E0,-5E-2,3.1534474E0,-5E-2,5E-2],"split_indices":[35,0,18,0,0],"split_type":[0,0,0,0,0],"sum_hessian":[2.1766438E3,1.0232705E3,1.1533732E3,6.655223E1,1.086821E3],"tree_param":{"num_deleted":"0","num_feature":"104","num_nodes":"5","size_leaf_vector":"1"}},{"base_weights":[1.825959E-2,-1E0,1E0,-1E0,1E0,1E0,-5E-2,-1E0,-1.9405553E-2,-5E-2,5E-2,-5E-2,1E0,-5E-2,-2.717636E-2,-5E-2,5E-2,3.330713E-2,5E-2],"categories":[],"categories_nodes":[],"categories_segments":[],"categories_sizes":[],"default_left":[0,0,0,0,0,0,0,0,0,0,0,0,0,0,0,0,0,0,0],"id":9,"left_children":[1,3,5,7,9,11,-1,13,15,-1,-1,-1,17,-1,-1,-1,-1,-1,-1],"loss_changes":[3.8651719E3,4.4307373E2,1.584165E2,2.3398926E1,4.628073E1,4.0051025E1,0E0,1.1778076E1,3.752101E1,0E0,0E0,0E0,2.932129E0,0E0,0E0,0E0,0E0,0E0,0E0],"parents":[2147483647,0,0,1,1,2,2,3,3,4,4,5,5,7,7,8,8,12,12],"right_children":[2,4,6,8,10,12,-1,14,16,-1,-1,-1,18,-1,-1,-1,-1,-1,-1],"split_conditions":[1.4115702E0,3.7E1,2.0849182E1,2.098855E0,8.809192E0,2.9E1,-5E-2,9.7628E4,4.419504E0,-5E-2,5E-2,-5E-2,1.5971402E0,-5E-2,-2.717636E-2,-5E-2,5E-2,3.330713E-2,5E-2],"split_indices":[40,13,11,27,0,13,0,1,48,0,0,0,40,0,0,0,0,0,0],"split_type":[0,0,0,0,0,0,0,0,0,0,0,0,0,0,0,0,0,0,0],"sum_hessian":[2.1630195E3,1.1438975E3,1.01912213E3,1.0612115E3,8.268594E1,9.94633E2,2.4489172E1,1.0367976E3,2.4413933E1,7.3705273E0,7.5315414E1,6.419492E0,9.882135E2,9.7267487E2,6.412269E1,1.0223635E1,1.4190297E1,4.2251873E1,9.459616E2],"tree_param":{"num_deleted":"0","num_feature":"104","num_nodes":"19","size_leaf_vector":"1"}},{"base_weights":[-2.1527274E-2,-5E-2,1E0,-5E-2,5E-2],"categories":[],"categories_nodes":[],"categories_segments":[],"categories_sizes":[],"default_left":[0,0,0,0,0],"id":10,"left_children":[1,-1,3,-1,-1],"loss_changes":[4.2109067E3,0E0,4.027235E2,0E0,0E0],"parents":[2147483647,0,0,2,2],"right_children":[2,-1,4,-1,-1],"split_conditions":[1.3489815E0,-5E-2,3.1534474E0,-5E-2,5E-2],"split_indices":[35,0,18,0,0],"split_type":[0,0,0,0,0],"sum_hessian":[2.0846863E3,9.936142E2,1.0910721E3,6.2980995E1,1.0280912E3],"tree_param":{"num_deleted":"0","num_feature":"104","num_nodes":"5","size_leaf_vector":"1"}},{"base_weights":[-6.1829435E-3,-5E-2,1E0,-5E-2,5E-2],"categories":[],"categories_nodes":[],"categories_segments":[],"categories_sizes":[],"default_left":[0,0,0,0,0],"id":11,"left_children":[1,-1,3,-1,-1],"loss_changes":[4.087498E3,0E0,3.945973E2,0E0,0E0],"parents":[2147483647,0,0,2,2],"right_children":[2,-1,4,-1,-1],"split_conditions":[1.3489815E0,-5E-2,3.1534474E0,-5E-2,5E-2],"split_indices":[35,0,18,0,0],"split_type":[0,0,0,0,0],"sum_hessian":[2.0803467E3,9.817148E2,1.098632E3,6.2874073E1,1.0357578E3],"tree_param":{"num_deleted":"0","num_feature":"104","num_nodes":"5","size_leaf_vector":"1"}},{"base_weights":[-2.4043506E-2,-1E0,1E0,-1E0,1E0,-5E-2,1E0,7.145218E-1,-1E0,-5E-2,5E-2,1E0,-5E-2,-5E-2,5E-2,-5E-2,-2.0139813E-2,2.4731947E-2,5E-2],"categories":[],"categories_nodes":[],"categories_segments":[],"categories_sizes":[],"default_left":[0,0,0,0,0,0,0,0,0,0,0,0,0,0,0,0,0,0,0],"id":12,"left_children":[1,3,5,7,9,-1,11,13,15,-1,-1,17,-1,-1,-1,-1,-1,-1,-1],"loss_changes":[3.2943657E3,3.6712744E2,1.1705957E2,6.2034058E1,4.193862E1,0E0,3.201709E1,1.8979828E1,3.3393066E1,0E0,0E0,5.1243896E0,0E0,0E0,0E0,0E0,0E0,0E0,0E0],"parents":[2147483647,0,0,1,1,2,2,3,3,4,4,6,6,7,7,8,8,11,11],"right_children":[2,4,6,8,10,-1,12,14,16,-1,-1,18,-1,-1,-1,-1,-1,-1,-1],"split_conditions":[1.479959E0,3.7E1,8.602167E-5,-1.8316945E0,5.606576E0,-5E-2,1.2639762E-1,7.959666E-1,1.0601424E0,-5E-2,5E-2,1.5971402E0,-5E-2,-5E-2,5E-2,-5E-2,-2.0139813E-2,2.4731947E-2,5E-2],"split_indices":[40,13,53,34,0,0,16,2,40,0,0,40,0,0,0,0,0,0,0],"split_type":[0,0,0,0,0,0,0,0,0,0,0,0,0,0,0,0,0,0,0],"sum_hessian":[2.0344426E3,1.122864E3,9.115786E2,1.049097E3,7.376699E1,1.9217876E1,8.923607E2,1.9783358E1,1.0293137E3,7.092312E0,6.667468E1,8.8686993E2,5.490822E0,3.6657934E0,1.6117565E1,9.3207697E2,9.7236725E1,2.5896885E1,8.60973E2],"tree_param":{"num_deleted":"0","num_feature":"104","num_nodes":"19","size_leaf_vector":"1"}},{"base_weights":[9.644548E-3,-5E-2,1E0,-5E-2,5E-2],"categories":[],"categories_nodes":[],"categories_segments":[],"categories_sizes":[],"default_left":[0,0,0,0,0],"id":13,"left_children":[1,-1,3,-1,-1],"loss_changes":[3.8172844E3,0E0,3.7524146E2,0E0,0E0],"parents":[2147483647,0,0,2,2],"right_children":[2,-1,4,-1,-1],"split_conditions":[1.3489815E0,-5E-2,3.1534474E0,-5E-2,5E-2],"split_indices":[35,0,18,0,0],"split_type":[0,0,0,0,0],"sum_hessian":[2.0476428E3,9.559008E2,1.091742E3,6.184705E1,1.0298949E3],"tree_param":{"num_deleted":"0","num_feature":"104","num_nodes":"5","size_leaf_vector":"1"}},{"base_weights":[-7.177042E-3,-5E-2,1E0,-5E-2,5E-2],"categories":[],"categories_nodes":[],"categories_segments":[],"categories_sizes":[],"default_left":[0,0,0,0,0],"id":14,"left_children":[1,-1,3,-1,-1],"loss_changes":[3.6148088E3,0E0,3.6299683E2,0E0,0E0],"parents":[2147483647,0,0,2,2],"right_children":[2,-1,4,-1,-1],"split_conditions":[1.3489815E0,-5E-2,3.1534474E0,-5E-2,5E-2],"split_indices":[35,0,18,0,0],"split_type":[0,0,0,0,0],"sum_hessian":[1.9924766E3,9.405903E2,1.0518862E3,6.085901E1,9.910272E2],"tree_param":{"num_deleted":"0","num_feature":"104","num_nodes":"5","size_leaf_vector":"1"}},{"base_weights":[2.8271528E-2,-5E-2,1E0,-5E-2,5E-2],"categories":[],"categories_nodes":[],"categories_segments":[],"categories_sizes":[],"default_left":[0,0,0,0,0],"id":15,"left_children":[1,-1,3,-1,-1],"loss_changes":[3.5501543E3,0E0,3.5339026E2,0E0,0E0],"parents":[2147483647,0,0,2,2],"right_children":[2,-1,4,-1,-1],"split_conditions":[1.3489815E0,-5E-2,3.1534474E0,-5E-2,5E-2],"split_indices":[35,0,18,0,0],"split_type":[0,0,0,0,0],"sum_hessian":[2.0048472E3,9.234066E2,1.0814406E3,6.024487E1,1.0211957E3],"tree_param":{"num_deleted":"0","num_feature":"104","num_nodes":"5","size_leaf_vector":"1"}},{"base_weights":[2.0418407E-2,-5E-2,1E0,-5E-2,5E-2],"categories":[],"categories_nodes":[],"categories_segments":[],"categories_sizes":[],"default_left":[0,0,0,0,0],"id":16,"left_children":[1,-1,3,-1,-1],"loss_changes":[3.3546658E3,0E0,3.366183E2,0E0,0E0],"parents":[2147483647,0,0,2,2],"right_children":[2,-1,4,-1,-1],"split_conditions":[1.3489815E0,-5E-2,3.1534474E0,-5E-2,5E-2],"split_indices":[35,0,18,0,0],"split_type":[0,0,0,0,0],"sum_hessian":[1.941492E3,8.993089E2,1.0421831E3,5.83058E1,9.8387726E2],"tree_param":{"num_deleted":"0","num_feature":"104","num_nodes":"5","size_leaf_vector":"1"}},{"base_weights":[1.2072352E-3,-1E0,1E0,-1E0,2.2101618E-1,1E0,-5E-2,-1E0,8.643002E-1,1E0,-3.1747147E-1,1E0,-4.2457085E-2,5E-2,-5E-2,-4.1329205E-2,5E-2,5E-2,-4.5976203E-2,-5E-2,4.82818E-2,2.8618032E-2,5E-2],"categories":[],"categories_nodes":[],"categories_segments":[],"categories_sizes":[],"default_left":[0,0,0,0,0,0,0,0,0,0,0,0,0,0,0,0,0,0,0,0,0,0,0],"id":17,"left_children":[1,3,5,7,9,11,-1,13,15,17,19,21,-1,-1,-1,-1,-1,-1,-1,-1,-1,-1,-1],"loss_changes":[2.6517207E3,2.3790881E2,8.669556E1,6.329944E1,7.338961E1,1.4880859E1,0E0,4.5062622E1,1.3452497E1,1.8568687E1,9.4004486E1,1.0740967E0,0E0,0E0,0E0,0E0,0E0,0E0,0E0,0E0,0E0,0E0,0E0],"parents":[2147483647,0,0,1,1,2,2,3,3,4,4,5,5,7,7,8,8,9,9,10,10,11,11],"right_children":[2,4,6,8,10,12,-1,14,16,18,20,22,-1,-1,-1,-1,-1,-1,-1,-1,-1,-1,-1],"split_conditions":[1.5193055E0,9.1871E4,2.0849182E1,4.8266706E0,1.6421715E0,3.748913E-2,-5E-2,-4.013025E0,8.896333E-1,2.4440467E-1,9.855544E-1,1.5971402E0,-4.2457085E-2,5E-2,-5E-2,-4.1329205E-2,5E-2,5E-2,-4.5976203E-2,-5E-2,4.82818E-2,2.8618032E-2,5E-2],"split_indices":[40,1,11,27,86,15,0,34,2,88,40,40,0,0,0,0,0,0,0,0,0,0,0],"split_type":[0,0,0,0,0,0,0,0,0,0,0,0,0,0,0,0,0,0,0,0,0,0,0],"sum_hessian":[1.8863391E3,1.0450287E3,8.413104E2,8.861112E2,1.5891743E2,8.257811E2,1.5529316E1,8.6932336E2,1.678787E1,6.122639E1,9.769105E1,8.228443E2,2.9368193E0,8.121052E0,8.6120233E2,2.7351687E0,1.4052702E1,5.764401E1,3.5823822E0,6.2823753E1,3.48673E1,1.4810067E1,8.0803424E2],"tree_param":{"num_deleted":"0","num_feature":"104","num_nodes":"23","size_leaf_vector":"1"}},{"base_weights":[-7.6966477E-3,-5E-2,1E0,-5E-2,5E-2],"categories":[],"categories_nodes":[],"categories_segments":[],"categories_sizes":[],"default_left":[0,0,0,0,0],"id":18,"left_children":[1,-1,3,-1,-1],"loss_changes":[3.0534666E3,0E0,3.206715E2,0E0,0E0],"parents":[2147483647,0,0,2,2],"right_children":[2,-1,4,-1,-1],"split_conditions":[1.3489815E0,-5E-2,3.1534474E0,-5E-2,5E-2],"split_indices":[35,0,18,0,0],"split_type":[0,0,0,0,0],"sum_hessian":[1.8569899E3,8.76932E2,9.800578E2,5.7258823E1,9.22799E2],"tree_param":{"num_deleted":"0","num_feature":"104","num_nodes":"5","size_leaf_vector":"1"}},{"base_weights":[4.356043E-3,-5E-2,1E0,-5E-2,5E-2],"categories":[],"categories_nodes":[],"categories_segments":[],"categories_sizes":[],"default_left":[0,0,0,0,0],"id":19,"left_children":[1,-1,3,-1,-1],"loss_changes":[2.920087E3,0E0,2.836659E2,0E0,0E0],"parents":[2147483647,0,0,2,2],"right_children":[2,-1,4,-1,-1],"split_conditions":[1.3489815E0,-5E-2,3.1534474E0,-5E-2,5E-2],"split_indices":[35,0,18,0,0],"split_type":[0,0,0,0,0],"sum_hessian":[1.8025563E3,8.4768304E2,9.548732E2,5.1413845E1,9.034594E2],"tree_param":{"num_deleted":"0","num_feature":"104","num_nodes":"5","size_leaf_vector":"1"}},{"base_weights":[-1.5474008E-2,-5E-2,1E0,-5E-2,5E-2],"categories":[],"categories_nodes":[],"categories_segments":[],"categories_sizes":[],"default_left":[0,0,0,0,0],"id":20,"left_children":[1,-1,3,-1,-1],"loss_changes":[2.7602737E3,0E0,2.9512463E2,0E0,0E0],"parents":[2147483647,0,0,2,2],"right_children":[2,-1,4,-1,-1],"split_conditions":[1.3489815E0,-5E-2,3.1534474E0,-5E-2,5E-2],"split_indices":[35,0,18,0,0],"split_type":[0,0,0,0,0],"sum_hessian":[1.7573324E3,8.349155E2,9.2241693E2,5.421535E1,8.6820154E2],"tree_param":{"num_deleted":"0","num_feature":"104","num_nodes":"5","size_leaf_vector":"1"}},{"base_weights":[-1.657101E-3,-5E-2,1E0,5E-2,-5E-2],"categories":[],"categories_nodes":[],"categories_segments":[],"categories_sizes":[],"default_left":[0,0,0,0,0],"id":21,"left_children":[1,-1,3,-1,-1],"loss_changes":[2.6701821E3,0E0,2.7397437E2,0E0,0E0],"parents":[2147483647,0,0,2,2],"right_children":[2,-1,4,-1,-1],"split_conditions":[1.3489815E0,-5E-2,5.248405E-2,5E-2,-5E-2],"split_indices":[35,0,15,0,0],"split_type":[0,0,0,0,0],"sum_hessian":[1.729104E3,8.151292E2,9.139748E2,8.629452E2,5.1029568E1],"tree_param":{"num_deleted":"0","num_feature":"104","num_nodes":"5","size_leaf_vector":"1"}},{"base_weights":[1.7766945E-2,-5E-2,1E0,5E-2,-5E-2],"categories":[],"categories_nodes":[],"categories_segments":[],"categories_sizes":[],"default_left":[0,0,0,0,0],"id":22,"left_children":[1,-1,3,-1,-1],"loss_changes":[2.6100305E3,0E0,2.6492236E2,0E0,0E0],"parents":[2147483647,0,0,2,2],"right_children":[2,-1,4,-1,-1],"split_conditions":[1.3489815E0,-5E-2,4.017687E-2,5E-2,-5E-2],"split_indices":[35,0,68,0,0],"split_type":[0,0,0,0,0],"sum_hessian":[1.72384E3,8.009064E2,9.229336E2,8.7294507E2,4.9988483E1],"tree_param":{"num_deleted":"0","num_feature":"104","num_nodes":"5","size_leaf_vector":"1"}},{"base_weights":[-8.777737E-3,-5E-2,1E0,-5E-2,5E-2],"categories":[],"categories_nodes":[],"categories_segments":[],"categories_sizes":[],"default_left":[0,0,0,0,0],"id":23,"left_children":[1,-1,3,-1,-1],"loss_changes":[2.4178792E3,0E0,2.5603357E2,0E0,0E0],"parents":[2147483647,0,0,2,2],"right_children":[2,-1,4,-1,-1],"split_conditions":[1.3489815E0,-5E-2,3.1534474E0,-5E-2,5E-2],"split_indices":[35,0,18,0,0],"split_type":[0,0,0,0,0],"sum_hessian":[1.6352396E3,7.7460614E2,8.6063354E2,4.8921333E1,8.117122E2],"tree_param":{"num_deleted":"0","num_feature":"104","num_nodes":"5","size_leaf_vector":"1"}},{"base_weights":[6.9677653E-3,-5E-2,1E0,-5E-2,5E-2],"categories":[],"categories_nodes":[],"categories_segments":[],"categories_sizes":[],"default_left":[0,0,0,0,0],"id":24,"left_children":[1,-1,3,-1,-1],"loss_changes":[2.3317292E3,0E0,2.5195825E2,0E0,0E0],"parents":[2147483647,0,0,2,2],"right_children":[2,-1,4,-1,-1],"split_conditions":[1.3489815E0,-5E-2,3.1534474E0,-5E-2,5E-2],"split_indices":[35,0,18,0,0],"split_type":[0,0,0,0,0],"sum_hessian":[1.6105518E3,7.527392E2,8.578126E2,4.872279E1,8.0908984E2],"tree_param":{"num_deleted":"0","num_feature":"104","num_nodes":"5","size_leaf_vector":"1"}},{"base_weights":[1.1476075E-2,-5E-2,1E0,-5E-2,5E-2],"categories":[],"categories_nodes":[],"categories_segments":[],"categories_sizes":[],"default_left":[0,0,0,0,0],"id":25,"left_children":[1,-1,3,-1,-1],"loss_changes":[2.2429321E3,0E0,2.3792651E2,0E0,0E0],"parents":[2147483647,0,0,2,2],"right_children":[2,-1,4,-1,-1],"split_conditions":[1.3489815E0,-5E-2,3.1534474E0,-5E-2,5E-2],"split_indices":[35,0,18,0,0],"split_type":[0,0,0,0,0],"sum_hessian":[1.5755243E3,7.3468695E2,8.408373E2,4.6555614E1,7.942817E2],"tree_param":{"num_deleted":"0","num_feature":"104","num_nodes":"5","size_leaf_vector":"1"}},{"base_weights":[1.3384895E-2,-5E-2,1E0,-5E-2,5E-2],"categories":[],"categories_nodes":[],"categories_segments":[],"categories_sizes":[],"default_left":[0,0,0,0,0],"id":26,"left_children":[1,-1,3,-1,-1],"loss_changes":[2.1280325E3,0E0,2.4247119E2,0E0,0E0],"parents":[2147483647,0,0,2,2],"right_children":[2,-1,4,-1,-1],"split_conditions":[1.3489815E0,-5E-2,3.1534474E0,-5E-2,5E-2],"split_indices":[35,0,18,0,0],"split_type":[0,0,0,0,0],"sum_hessian":[1.533306E3,7.110667E2,8.2223926E2,4.796364E1,7.7427563E2],"tree_param":{"num_deleted":"0","num_feature":"104","num_nodes":"5","size_leaf_vector":"1"}},{"base_weights":[-6.2980168E-3,-5E-2,1E0,5E-2,-5E-2],"categories":[],"categories_nodes":[],"categories_segments":[],"categories_sizes":[],"default_left":[0,0,0,0,0],"id":27,"left_children":[1,-1,3,-1,-1],"loss_changes":[2.015403E3,0E0,2.1891754E2,0E0,0E0],"parents":[2147483647,0,0,2,2],"right_children":[2,-1,4,-1,-1],"split_conditions":[1.3489815E0,-5E-2,4.017687E-2,5E-2,-5E-2],"split_indices":[35,0,68,0,0],"split_type":[0,0,0,0,0],"sum_hessian":[1.4707948E3,6.9564264E2,7.7515216E2,7.313483E2,4.3803852E1],"tree_param":{"num_deleted":"0","num_feature":"104","num_nodes":"5","size_leaf_vector":"1"}},{"base_weights":[6.078691E-4,-5E-2,1E0,-5E-2,5E-2],"categories":[],"categories_nodes":[],"categories_segments":[],"categories_sizes":[],"default_left":[0,0,0,0,0],"id":28,"left_children":[1,-1,3,-1,-1],"loss_changes":[1.9209731E3,0E0,2.1831232E2,0E0,0E0],"parents":[2147483647,0,0,2,2],"right_children":[2,-1,4,-1,-1],"split_conditions":[1.3489815E0,-5E-2,3.1534474E0,-5E-2,5E-2],"split_indices":[35,0,18,0,0],"split_type":[0,0,0,0,0],"sum_hessian":[1.4322556E3,6.720003E2,7.602553E2,4.4125237E1,7.1613007E2],"tree_param":{"num_deleted":"0","num_feature":"104","num_nodes":"5","size_leaf_vector":"1"}},{"base_weights":[4.015177E-3,-5E-2,1E0,-5E-2,5E-2],"categories":[],"categories_nodes":[],"categories_segments":[],"categories_sizes":[],"default_left":[0,0,0,0,0],"id":29,"left_children":[1,-1,3,-1,-1],"loss_changes":[1.8319058E3,0E0,2.0878589E2,0E0,0E0],"parents":[2147483647,0,0,2,2],"right_children":[2,-1,4,-1,-1],"split_conditions":[1.3489815E0,-5E-2,3.1534474E0,-5E-2,5E-2],"split_indices":[35,0,18,0,0],"split_type":[0,0,0,0,0],"sum_hessian":[1.389108E3,6.499894E2,7.3911865E2,4.263404E1,6.964846E2],"tree_param":{"num_deleted":"0","num_feature":"104","num_nodes":"5","size_leaf_vector":"1"}},{"base_weights":[-4.1830787E-3,-5E-2,1E0,-5E-2,5E-2],"categories":[],"categories_nodes":[],"categories_segments":[],"categories_sizes":[],"default_left":[0,0,0,0,0],"id":30,"left_children":[1,-1,3,-1,-1],"loss_changes":[1.7407933E3,0E0,1.9824182E2,0E0,0E0],"parents":[2147483647,0,0,2,2],"right_children":[2,-1,4,-1,-1],"split_conditions":[1.3489815E0,-5E-2,3.1534474E0,-5E-2,5E-2],"split_indices":[35,0,18,0,0],"split_type":[0,0,0,0,0],"sum_hessian":[1.3409265E3,6.322321E2,7.0869446E2,4.087972E1,6.678147E2],"tree_param":{"num_deleted":"0","num_feature":"104","num_nodes":"5","size_leaf_vector":"1"}},{"base_weights":[-1.2116717E-3,-9.1453457E-1,1E0,-1E0,8.8787115E-1,1E0,-5E-2,-1E0,4.479509E-1,-4.5622386E-2,5E-2,1E0,-3.17403E-2,1.8147698E-2,-5E-2,-1.5267047E-2,5E-2,2.0789111E-2,5E-2],"categories":[],"categories_nodes":[],"categories_segments":[],"categories_sizes":[],"default_left":[0,0,0,0,0,0,0,0,0,0,0,0,0,0,0,0,0,0,0],"id":31,"left_children":[1,3,5,7,9,11,-1,13,15,-1,-1,17,-1,-1,-1,-1,-1,-1,-1],"loss_changes":[1.3563928E3,1.7951337E2,5.33714E1,5.5454956E1,2.687695E1,9.188965E0,0E0,2.355664E1,1.2693115E1,0E0,0E0,2.3676758E0,0E0,0E0,0E0,0E0,0E0,0E0,0E0],"parents":[2147483647,0,0,1,1,2,2,3,3,4,4,5,5,7,7,8,8,11,11],"right_children":[2,4,6,8,10,12,-1,14,16,-1,-1,18,-1,-1,-1,-1,-1,-1,-1],"split_conditions":[1.5193055E0,3.7E1,2.0849182E1,2.098855E0,8.809192E0,1.7372742E1,-5E-2,-1.8316945E0,9.011308E-1,-4.5622386E-2,5E-2,1.5971402E0,-3.17403E-2,1.8147698E-2,-5E-2,-1.5267047E-2,5E-2,2.0789111E-2,5E-2],"split_indices":[40,13,11,27,0,3,0,34,40,0,0,40,0,0,0,0,0,0,0],"split_type":[0,0,0,0,0,0,0,0,0,0,0,0,0,0,0,0,0,0,0],"sum_hessian":[1.3099612E3,7.2738947E2,5.825717E2,6.7696576E2,5.0423706E1,5.711546E2,1.1417121E1,6.515614E2,2.5404327E1,6.075577E0,4.434813E1,5.68968E2,2.1865754E0,1.1757598E1,6.3980383E2,1.1524623E1,1.3879704E1,1.079668E1,5.581713E2],"tree_param":{"num_deleted":"0","num_feature":"104","num_nodes":"19","size_leaf_vector":"1"}},{"base_weights":[-5.767864E-3,-5E-2,1E0,-5E-2,5E-2],"categories":[],"categories_nodes":[],"categories_segments":[],"categories_sizes":[],"default_left":[0,0,0,0,0],"id":32,"left_children":[1,-1,3,-1,-1],"loss_changes":[1.5803442E3,0E0,1.8251239E2,0E0,0E0],"parents":[2147483647,0,0,2,2],"right_children":[2,-1,4,-1,-1],"split_conditions":[1.3489815E0,-5E-2,3.1534474E0,-5E-2,5E-2],"split_indices":[35,0,18,0,0],"split_type":[0,0,0,0,0],"sum_hessian":[1.2552664E3,5.9283435E2,6.62432E2,3.8332832E1,6.240992E2],"tree_param":{"num_deleted":"0","num_feature":"104","num_nodes":"5","size_leaf_vector":"1"}},{"base_weights":[-4.8743654E-3,-5E-2,1E0,-5E-2,5E-2],"categories":[],"categories_nodes":[],"categories_segments":[],"categories_sizes":[],"default_left":[0,0,0,0,0],"id":33,"left_children":[1,-1,3,-1,-1],"loss_changes":[1.5168551E3,0E0,1.7300629E2,0E0,0E0],"parents":[2147483647,0,0,2,2],"right_children":[2,-1,4,-1,-1],"split_conditions":[1.3489815E0,-5E-2,3.1534474E0,-5E-2,5E-2],"split_indices":[35,0,18,0,0],"split_type":[0,0,0,0,0],"sum_hessian":[1.2206509E3,5.766881E2,6.4396277E2,3.6660908E1,6.073018E2],"tree_param":{"num_deleted":"0","num_feature":"104","num_nodes":"5","size_leaf_vector":"1"}},{"base_weights":[6.7419154E-3,-5E-2,1E0,-5E-2,5E-2],"categories":[],"categories_nodes":[],"categories_segments":[],"categories_sizes":[],"default_left":[0,0,0,0,0],"id":34,"left_children":[1,-1,3,-1,-1],"loss_changes":[1.4554191E3,0E0,1.6517017E2,0E0,0E0],"parents":[2147483647,0,0,2,2],"right_children":[2,-1,4,-1,-1],"split_conditions":[1.3489815E0,-5E-2,3.1534474E0,-5E-2,5E-2],"split_indices":[35,0,18,0,0],"split_type":[0,0,0,0,0],"sum_hessian":[1.1872522E3,5.553713E2,6.3188086E2,3.52986E1,5.965823E2],"tree_param":{"num_deleted":"0","num_feature":"104","num_nodes":"5","size_leaf_vector":"1"}},{"base_weights":[-1.5752651E-3,-5E-2,1E0,-5E-2,5E-2],"categories":[],"categories_nodes":[],"categories_segments":[],"categories_sizes":[],"default_left":[0,0,0,0,0],"id":35,"left_children":[1,-1,3,-1,-1],"loss_changes":[1.3817379E3,0E0,1.6484796E2,0E0,0E0],"parents":[2147483647,0,0,2,2],"right_children":[2,-1,4,-1,-1],"split_conditions":[1.3489815E0,-5E-2,3.1534474E0,-5E-2,5E-2],"split_indices":[35,0,18,0,0],"split_type":[0,0,0,0,0],"sum_hessian":[1.1483394E3,5.398295E2,6.085099E2,3.5497154E1,5.730127E2],"tree_param":{"num_deleted":"0","num_feature":"104","num_nodes":"5","size_leaf_vector":"1"}},{"base_weights":[7.843934E-3,-5E-2,1E0,-5E-2,5E-2],"categories":[],"categories_nodes":[],"categories_segments":[],"categories_sizes":[],"default_left":[0,0,0,0,0],"id":36,"left_children":[1,-1,3,-1,-1],"loss_changes":[1.3192158E3,0E0,1.538418E2,0E0,0E0],"parents":[2147483647,0,0,2,2],"right_children":[2,-1,4,-1,-1],"split_conditions":[1.3489815E0,-5E-2,3.1534474E0,-5E-2,5E-2],"split_indices":[35,0,18,0,0],"split_type":[0,0,0,0,0],"sum_hessian":[1.1081354E3,5.172479E2,5.908874E2,3.3399467E1,5.574879E2],"tree_param":{"num_deleted":"0","num_feature":"104","num_nodes":"5","size_leaf_vector":"1"}},{"base_weights":[1.55892875E-2,-5E-2,1E0,-5E-2,5E-2],"categories":[],"categories_nodes":[],"categories_segments":[],"categories_sizes":[],"default_left":[0,0,0,0,0],"id":37,"left_children":[1,-1,3,-1,-1],"loss_changes":[1.2569785E3,0E0,1.4068768E2,0E0,0E0],"parents":[2147483647,0,0,2,2],"right_children":[2,-1,4,-1,-1],"split_conditions":[1.3489815E0,-5E-2,3.1534474E0,-5E-2,5E-2],"split_indices":[35,0,18,0,0],"split_type":[0,0,0,0,0],"sum_hessian":[1.0648964E3,4.9477847E2,5.701179E2,3.0795752E1,5.393222E2],"tree_param":{"num_deleted":"0","num_feature":"104","num_nodes":"5","size_leaf_vector":"1"}},{"base_weights":[-1.1631731E-3,-5E-2,1E0,-5E-2,5E-2],"categories":[],"categories_nodes":[],"categories_segments":[],"categories_sizes":[],"default_left":[0,0,0,0,0],"id":38,"left_children":[1,-1,3,-1,-1],"loss_changes":[1.189122E3,0E0,1.3465521E2,0E0,0E0],"parents":[2147483647,0,0,2,2],"right_children":[2,-1,4,-1,-1],"split_conditions":[1.3489815E0,-5E-2,3.1534474E0,-5E-2,5E-2],"split_indices":[35,0,18,0,0],"split_type":[0,0,0,0,0],"sum_hessian":[1.0203046E3,4.8135242E2,5.3895215E2,2.9691202E1,5.09261E2],"tree_param":{"num_deleted":"0","num_feature":"104","num_nodes":"5","size_leaf_vector":"1"}},{"base_weights":[-1.0124914E-2,-5E-2,1E0,-5E-2,5E-2],"categories":[],"categories_nodes":[],"categories_segments":[],"categories_sizes":[],"default_left":[0,0,0,0,0],"id":39,"left_children":[1,-1,3,-1,-1],"loss_changes":[1.1080996E3,0E0,1.3535333E2,0E0,0E0],"parents":[2147483647,0,0,2,2],"right_children":[2,-1,4,-1,-1],"split_conditions":[1.3489815E0,-5E-2,3.1534474E0,-5E-2,5E-2],"split_indices":[35,0,18,0,0],"split_type":[0,0,0,0,0],"sum_hessian":[9.6995526E2,4.595268E2,5.1042847E2,3.0034306E1,4.8039417E2],"tree_param":{"num_deleted":"0","num_feature":"104","num_nodes":"5","size_leaf_vector":"1"}},{"base_weights":[-6.1478163E-3,-5E-2,1E0,-5E-2,5E-2],"categories":[],"categories_nodes":[],"categories_segments":[],"categories_sizes":[],"default_left":[0,0,0,0,0],"id":40,"left_children":[1,-1,3,-1,-1],"loss_changes":[1.0780233E3,0E0,1.2609512E2,0E0,0E0],"parents":[2147483647,0,0,2,2],"right_children":[2,-1,4,-1,-1],"split_conditions":[1.3489815E0,-5E-2,3.1534474E0,-5E-2,5E-2],"split_indices":[35,0,18,0,0],"split_type":[0,0,0,0,0],"sum_hessian":[9.4975653E2,4.4953558E2,5.0022098E2,2.8182268E1,4.720387E2],"tree_param":{"num_deleted":"0","num_feature":"104","num_nodes":"5","size_leaf_vector":"1"}},{"base_weights":[5.2797436E-3,-5E-2,9.9282676E-1,-5E-2,5E-2],"categories":[],"categories_nodes":[],"categories_segments":[],"categories_sizes":[],"default_left":[0,0,0,0,0],"id":41,"left_children":[1,-1,3,-1,-1],"loss_changes":[1.026525E3,0E0,1.2971094E2,0E0,0E0],"parents":[2147483647,0,0,2,2],"right_children":[2,-1,4,-1,-1],"split_conditions":[1.3489815E0,-5E-2,3.1534474E0,-5E-2,5E-2],"split_indices":[35,0,18,0,0],"split_type":[0,0,0,0,0],"sum_hessian":[9.22019E2,4.298992E2,4.921198E2,2.91542E1,4.629656E2],"tree_param":{"num_deleted":"0","num_feature":"104","num_nodes":"5","size_leaf_vector":"1"}},{"base_weights":[9.573699E-3,-5E-2,9.945464E-1,-5E-2,5E-2],"categories":[],"categories_nodes":[],"categories_segments":[],"categories_sizes":[],"default_left":[0,0,0,0,0],"id":42,"left_children":[1,-1,3,-1,-1],"loss_changes":[9.863577E2,0E0,1.17414734E2,0E0,0E0],"parents":[2147483647,0,0,2,2],"right_children":[2,-1,4,-1,-1],"split_conditions":[1.3489815E0,-5E-2,3.1534474E0,-5E-2,5E-2],"split_indices":[35,0,18,0,0],"split_type":[0,0,0,0,0],"sum_hessian":[8.8923517E2,4.1445367E2,4.747815E2,2.6579283E1,4.482022E2],"tree_param":{"num_deleted":"0","num_feature":"104","num_nodes":"5","size_leaf_vector":"1"}},{"base_weights":[-1.3908122E-2,-5E-2,9.8350537E-1,-5E-2,5E-2],"categories":[],"categories_nodes":[],"categories_segments":[],"categories_sizes":[],"default_left":[0,0,0,0,0],"id":43,"left_children":[1,-1,3,-1,-1],"loss_changes":[9.1659143E2,0E0,1.12535706E2,0E0,0E0],"parents":[2147483647,0,0,2,2],"right_children":[2,-1,4,-1,-1],"split_conditions":[1.3489815E0,-5E-2,3.1534474E0,-5E-2,5E-2],"split_indices":[35,0,18,0,0],"split_type":[0,0,0,0,0],"sum_hessian":[8.375354E2,3.985575E2,4.389779E2,2.5653828E1,4.133241E2],"tree_param":{"num_deleted":"0","num_feature":"104","num_nodes":"5","size_leaf_vector":"1"}},{"base_weights":[6.351567E-3,-5E-2,9.803708E-1,-5E-2,5E-2],"categories":[],"categories_nodes":[],"categories_segments":[],"categories_sizes":[],"default_left":[0,0,0,0,0],"id":44,"left_children":[1,-1,3,-1,-1],"loss_changes":[8.848647E2,0E0,1.0903894E2,0E0,0E0],"parents":[2147483647,0,0,2,2],"right_children":[2,-1,4,-1,-1],"split_conditions":[1.3489815E0,-5E-2,3.1534474E0,-5E-2,5E-2],"split_indices":[35,0,18,0,0],"split_type":[0,0,0,0,0],"sum_hessian":[8.16687E2,3.811444E2,4.3554263E2,2.5011011E1,4.1053162E2],"tree_param":{"num_deleted":"0","num_feature":"104","num_nodes":"5","size_leaf_vector":"1"}},{"base_weights":[1.6459853E-3,-5E-2,9.7482663E-1,-5E-2,5E-2],"categories":[],"categories_nodes":[],"categories_segments":[],"categories_sizes":[],"default_left":[0,0,0,0,0],"id":45,"left_children":[1,-1,3,-1,-1],"loss_changes":[8.347756E2,0E0,1.0328891E2,0E0,0E0],"parents":[2147483647,0,0,2,2],"right_children":[2,-1,4,-1,-1],"split_conditions":[1.3489815E0,-5E-2,3.1534474E0,-5E-2,5E-2],"split_indices":[35,0,18,0,0],"split_type":[0,0,0,0,0],"sum_hessian":[7.778939E2,3.6469806E2,4.131959E2,2.3855469E1,3.8934042E2],"tree_param":{"num_deleted":"0","num_feature":"104","num_nodes":"5","size_leaf_vector":"1"}},{"base_weights":[6.2861308E-3,-5E-2,9.754926E-1,-5E-2,5E-2],"categories":[],"categories_nodes":[],"categories_segments":[],"categories_sizes":[],"default_left":[0,0,0,0,0],"id":46,"left_children":[1,-1,3,-1,-1],"loss_changes":[8.108964E2,0E0,9.6043884E1,0E0,0E0],"parents":[2147483647,0,0,2,2],"right_children":[2,-1,4,-1,-1],"split_conditions":[1.3489815E0,-5E-2,3.1534474E0,-5E-2,5E-2],"split_indices":[35,0,18,0,0],"split_type":[0,0,0,0,0],"sum_hessian":[7.587581E2,3.5506427E2,4.0369385E2,2.2318605E1,3.8137524E2],"tree_param":{"num_deleted":"0","num_feature":"104","num_nodes":"5","size_leaf_vector":"1"}},{"base_weights":[-8.661605E-3,-5E-2,9.6722144E-1,-5E-2,5E-2],"categories":[],"categories_nodes":[],"categories_segments":[],"categories_sizes":[],"default_left":[0,0,0,0,0],"id":47,"left_children":[1,-1,3,-1,-1],"loss_changes":[7.5803357E2,0E0,9.154257E1,0E0,0E0],"parents":[2147483647,0,0,2,2],"right_children":[2,-1,4,-1,-1],"split_conditions":[1.3489815E0,-5E-2,3.1534474E0,-5E-2,5E-2],"split_indices":[35,0,18,0,0],"split_type":[0,0,0,0,0],"sum_hessian":[7.170943E2,3.4009174E2,3.7700253E2,2.1428663E1,3.5557388E2],"tree_param":{"num_deleted":"0","num_feature":"104","num_nodes":"5","size_leaf_vector":"1"}},{"base_weights":[1.0347647E-2,-5E-2,9.6200275E-1,-4.9906246E-2,5E-2],"categories":[],"categories_nodes":[],"categories_segments":[],"categories_sizes":[],"default_left":[0,0,0,0,0],"id":48,"left_children":[1,-1,3,-1,-1],"loss_changes":[7.2890424E2,0E0,9.089563E1,0E0,0E0],"parents":[2147483647,0,0,2,2],"right_children":[2,-1,4,-1,-1],"split_conditions":[1.3489815E0,-5E-2,3.1534474E0,-4.9906246E-2,5E-2],"split_indices":[35,0,18,0,0],"split_type":[0,0,0,0,0],"sum_hessian":[6.9764087E2,3.2423727E2,3.7340363E2,2.1403267E1,3.5200037E2],"tree_param":{"num_deleted":"0","num_feature":"104","num_nodes":"5","size_leaf_vector":"1"}},{"base_weights":[1.6451174E-2,-5E-2,9.6315175E-1,-4.935589E-2,5E-2],"categories":[],"categories_nodes":[],"categories_segments":[],"categories_sizes":[],"default_left":[0,0,0,0,0],"id":49,"left_children":[1,-1,3,-1,-1],"loss_changes":[6.990121E2,0E0,8.35282E1,0E0,0E0],"parents":[2147483647,0,0,2,2],"right_children":[2,-1,4,-1,-1],"split_conditions":[1.3489815E0,-5E-2,3.1534474E0,-4.935589E-2,5E-2],"split_indices":[35,0,18,0,0],"split_type":[0,0,0,0,0],"sum_hessian":[6.7126587E2,3.1088263E2,3.603832E2,1.9784792E1,3.4059842E2],"tree_param":{"num_deleted":"0","num_feature":"104","num_nodes":"5","size_leaf_vector":"1"}},{"base_weights":[-8.434823E-3,-5E-2,9.4953865E-1,-4.91749E-2,5E-2],"categories":[],"categories_nodes":[],"categories_segments":[],"categories_sizes":[],"default_left":[0,0,0,0,0],"id":50,"left_children":[1,-1,3,-1,-1],"loss_changes":[6.5128107E2,0E0,8.300638E1,0E0,0E0],"parents":[2147483647,0,0,2,2],"right_children":[2,-1,4,-1,-1],"split_conditions":[1.3489815E0,-5E-2,3.1534474E0,-4.91749E-2,5E-2],"split_indices":[35,0,18,0,0],"split_type":[0,0,0,0,0],"sum_hessian":[6.347388E2,3.0013678E2,3.3460202E2,1.9824532E1,3.147775E2],"tree_param":{"num_deleted":"0","num_feature":"104","num_nodes":"5","size_leaf_vector":"1"}},{"base_weights":[-5.809346E-4,9.2845815E-1,-7.964685E-1,-4.5375306E-2,1E0,-9.9253386E-1,8.460189E-1,-3.269805E-2,1E0,-1E0,-3.3337167E-1,-3.188483E-2,5E-2,1.3268679E-2,5E-2,-5E-2,1.5000785E-2,-4.71991E-2,4.235313E-2],"categories":[],"categories_nodes":[],"categories_segments":[],"categories_sizes":[],"default_left":[0,0,0,0,0,0,0,0,0,0,0,0,0,0,0,0,0,0,0],"id":51,"left_children":[1,3,5,-1,7,9,11,-1,13,15,17,-1,-1,-1,-1,-1,-1,-1,-1],"loss_changes":[4.4946362E2,4.2260025E1,1.071118E2,0E0,1.1839203E1,8.176666E0,1.0274757E1,0E0,7.0458984E-1,5.9121704E0,1.8131828E1,0E0,0E0,0E0,0E0,0E0,0E0,0E0,0E0],"parents":[2147483647,0,0,1,1,2,2,4,4,5,5,6,6,8,8,9,9,10,10],"right_children":[2,4,6,-1,8,10,12,-1,14,16,18,-1,-1,-1,-1,-1,-1,-1,-1],"split_conditions":[-1.1350899E0,8.602167E-5,3.7E1,-4.5375306E-2,2.9E1,3.6E1,3.036E3,-3.269805E-2,6.7519224E-1,4.8266706E0,3.076E3,-3.188483E-2,5E-2,1.3268679E-2,5E-2,-5E-2,1.5000785E-2,-4.71991E-2,4.235313E-2],"split_indices":[34,53,13,0,13,13,1,0,22,27,1,0,0,0,0,0,0,0,0],"split_type":[0,0,0,0,0,0,0,0,0,0,0,0,0,0,0,0,0,0,0],"sum_hessian":[6.0386725E2,2.784729E2,3.2539438E2,1.0558619E1,2.6791428E2,2.9140097E2,3.3993404E1,3.0589519E0,2.6485532E2,2.7046405E2,2.0936932E1,2.8948264E0,3.109858E1,3.0114596E0,2.6184387E2,2.677824E2,2.6816437E0,1.4063065E1,6.8738675E0],"tree_param":{"num_deleted":"0","num_feature":"104","num_nodes":"19","size_leaf_vector":"1"}},{"base_weights":[1.000415E-3,-5E-2,9.4710165E-1,-4.832117E-2,5E-2],"categories":[],"categories_nodes":[],"categories_segments":[],"categories_sizes":[],"default_left":[0,0,0,0,0],"id":52,"left_children":[1,-1,3,-1,-1],"loss_changes":[5.966533E2,0E0,7.36503E1,0E0,0E0],"parents":[2147483647,0,0,2,2],"right_children":[2,-1,4,-1,-1],"split_conditions":[1.3489815E0,-5E-2,3.1534474E0,-4.832117E-2,5E-2],"split_indices":[35,0,18,0,0],"split_type":[0,0,0,0,0],"sum_hessian":[5.875009E2,2.757921E2,3.117088E2,1.7790977E1,2.9391782E2],"tree_param":{"num_deleted":"0","num_feature":"104","num_nodes":"5","size_leaf_vector":"1"}},{"base_weights":[-7.5154146E-3,-5E-2,9.3927044E-1,-4.8062436E-2,5E-2],"categories":[],"categories_nodes":[],"categories_segments":[],"categories_sizes":[],"default_left":[0,0,0,0,0],"id":53,"left_children":[1,-1,3,-1,-1],"loss_changes":[5.62944E2,0E0,7.166086E1,0E0,0E0],"parents":[2147483647,0,0,2,2],"right_children":[2,-1,4,-1,-1],"split_conditions":[1.3489815E0,-5E-2,3.1534474E0,-4.8062436E-2,5E-2],"split_indices":[35,0,18,0,0],"split_type":[0,0,0,0,0],"sum_hessian":[5.601531E2,2.646929E2,2.9546014E2,1.7435312E1,2.780248E2],"tree_param":{"num_deleted":"0","num_feature":"104","num_nodes":"5","size_leaf_vector":"1"}},{"base_weights":[-2.0067424E-2,-7.959283E-1,9.9293584E-1,-9.1462845E-1,7.342186E-1,1E0,-3.757174E-2,-1E0,-1.16600536E-1,-3.0097917E-2,4.817334E-2,2.3379938E-1,1E0,-5E-2,-7.3455805E-3,-3.5986245E-2,3.1120077E-2,-1.1456748E-2,2.991857E-2,5E-2,1.2402314E-2],"categories":[],"categories_nodes":[],"categories_segments":[],"categories_sizes":[],"default_left":[0,0,0,0,0,0,0,0,0,0,0,0,0,0,0,0,0,0,0,0,0],"id":54,"left_children":[1,3,5,7,9,11,-1,13,15,-1,-1,17,19,-1,-1,-1,-1,-1,-1,-1,-1],"loss_changes":[4.195976E2,5.6248474E1,1.8699295E1,2.4777023E1,8.16586E0,2.1444702E0,0E0,9.4940186E-1,1.736064E1,0E0,0E0,1.4656937E0,2.8897095E-1,0E0,0E0,0E0,0E0,0E0,0E0,0E0,0E0],"parents":[2147483647,0,0,1,1,2,2,3,3,4,4,5,5,7,7,8,8,11,11,12,12],"right_children":[2,4,6,8,10,12,-1,14,16,-1,-1,18,20,-1,-1,-1,-1,-1,-1,-1,-1],"split_conditions":[1.5193055E0,3.7E1,2.0849182E1,1.0601424E0,8.809192E0,1.5971402E0,-3.757174E-2,7E0,-9.631232E-1,-3.0097917E-2,4.817334E-2,3.4E1,3.6151096E-2,-5E-2,-7.3455805E-3,-3.5986245E-2,3.1120077E-2,-1.1456748E-2,2.991857E-2,5E-2,1.2402314E-2],"split_indices":[40,13,11,40,0,40,0,101,37,0,0,13,15,0,0,0,0,0,0,0,0],"split_type":[0,0,0,0,0,0,0,0,0,0,0,0,0,0,0,0,0,0,0,0,0],"sum_hessian":[5.298624E2,3.0029474E2,2.2956767E2,2.794232E2,2.0871548E1,2.2481602E2,4.7516446E0,2.4448276E2,3.4940426E1,2.5803492E0,1.8291199E1,5.0596533E0,2.1975636E2,2.4243001E2,2.0527542E0,1.9267635E1,1.56727915E1,2.5564542E0,2.503199E0,2.1770822E2,2.0481522E0],"tree_param":{"num_deleted":"0","num_feature":"104","num_nodes":"21","size_leaf_vector":"1"}},{"base_weights":[-1.51855545E-2,-7.84375E-1,9.8787314E-1,-9.119915E-1,7.50783E-1,1E0,-3.7270315E-2,-1E0,-1.8117693E-1,-2.935957E-2,4.8176344E-2,2.648758E-1,1E0,-5E-2,5.445645E-3,-3.0857557E-2,3.631171E-2,-9.35151E-3,2.9514326E-2,5E-2,8.713493E-3],"categories":[],"categories_nodes":[],"categories_segments":[],"categories_sizes":[],"default_left":[0,0,0,0,0,0,0,0,0,0,0,0,0,0,0,0,0,0,0,0,0],"id":55,"left_children":[1,3,5,7,9,11,-1,13,15,-1,-1,17,19,-1,-1,-1,-1,-1,-1,-1,-1],"loss_changes":[3.9590344E2,5.8262314E1,1.8257309E1,1.9380661E1,7.7879868E0,1.6795044E0,0E0,6.219696E0,1.4741375E1,0E0,0E0,1.2220683E0,8.4580994E-1,0E0,0E0,0E0,0E0,0E0,0E0,0E0,0E0],"parents":[2147483647,0,0,1,1,2,2,3,3,4,4,5,5,7,7,8,8,11,11,12,12],"right_children":[2,4,6,8,10,12,-1,14,16,-1,-1,18,20,-1,-1,-1,-1,-1,-1,-1,-1],"split_conditions":[1.5193055E0,3.7E1,2.0849182E1,1.0601424E0,5.606576E0,1.5971402E0,-3.7270315E-2,2.759948E0,3.3E1,-2.935957E-2,4.8176344E-2,3.4E1,3.3261402E0,-5E-2,5.445645E-3,-3.0857557E-2,3.631171E-2,-9.35151E-3,2.9514326E-2,5E-2,8.713493E-3],"split_indices":[40,13,11,40,0,40,0,27,13,0,0,13,2,0,0,0,0,0,0,0,0],"split_type":[0,0,0,0,0,0,0,0,0,0,0,0,0,0,0,0,0,0,0,0,0],"sum_hessian":[5.091239E2,2.884012E2,2.2072269E2,2.6701624E2,2.1384989E1,2.1606244E2,4.660241E0,2.340195E2,3.299674E1,2.4508836E0,1.8934105E1,4.80878E0,2.1125366E2,2.2933511E2,4.684384E0,2.2720306E1,1.0276432E1,2.3691626E0,2.4396176E0,2.0907986E2,2.1737964E0],"tree_param":{"num_deleted":"0","num_feature":"104","num_nodes":"21","size_leaf_vector":"1"}},{"base_weights":[1.5674254E-2,-5E-2,9.404787E-1,-4.6715632E-2,5E-2],"categories":[],"categories_nodes":[],"categories_segments":[],"categories_sizes":[],"default_left":[0,0,0,0,0],"id":56,"left_children":[1,-1,3,-1,-1],"loss_changes":[4.9751312E2,0E0,5.8936035E1,0E0,0E0],"parents":[2147483647,0,0,2,2],"right_children":[2,-1,4,-1,-1],"split_conditions":[1.3489815E0,-5E-2,3.1534474E0,-4.6715632E-2,5E-2],"split_indices":[35,0,18,0,0],"split_type":[0,0,0,0,0],"sum_hessian":[5.0012692E2,2.319063E2,2.6822064E2,1.4542098E1,2.5367854E2],"tree_param":{"num_deleted":"0","num_feature":"104","num_nodes":"5","size_leaf_vector":"1"}},{"base_weights":[1.864225E-2,-5E-2,9.356826E-1,5E-2,-4.6477262E-2],"categories":[],"categories_nodes":[],"categories_segments":[],"categories_sizes":[],"default_left":[0,0,0,0,0],"id":57,"left_children":[1,-1,3,-1,-1],"loss_changes":[4.7353455E2,0E0,5.747049E1,0E0,0E0],"parents":[2147483647,0,0,2,2],"right_children":[2,-1,4,-1,-1],"split_conditions":[1.3489815E0,-5E-2,4.017687E-2,5E-2,-4.6477262E-2],"split_indices":[35,0,68,0,0],"split_type":[0,0,0,0,0],"sum_hessian":[4.7999362E2,2.2159833E2,2.5839526E2,2.4413277E2,1.4262512E1],"tree_param":{"num_deleted":"0","num_feature":"104","num_nodes":"5","size_leaf_vector":"1"}},{"base_weights":[9.762639E-3,-5E-2,9.2549914E-1,-4.636655E-2,5E-2],"categories":[],"categories_nodes":[],"categories_segments":[],"categories_sizes":[],"default_left":[0,0,0,0,0],"id":58,"left_children":[1,-1,3,-1,-1],"loss_changes":[4.4343588E2,0E0,5.714258E1,0E0,0E0],"parents":[2147483647,0,0,2,2],"right_children":[2,-1,4,-1,-1],"split_conditions":[1.3489815E0,-5E-2,3.1534474E0,-4.636655E-2,5E-2],"split_indices":[35,0,18,0,0],"split_type":[0,0,0,0,0],"sum_hessian":[4.5506754E2,2.1122539E2,2.4384216E2,1.4288974E1,2.2955318E2],"tree_param":{"num_deleted":"0","num_feature":"104","num_nodes":"5","size_leaf_vector":"1"}},{"base_weights":[6.3661076E-3,-7.667788E-1,9.774456E-1,-8.9778036E-1,7.457214E-1,1E0,-3.454347E-2,-9.589742E-1,4.0674272E-1,-1.606938E-2,4.6813715E-2,2.177285E-1,1E0,-5E-2,-5.6514055E-3,-1.3294096E-2,3.4209862E-2,-9.988445E-3,2.7107934E-2,5E-2,1.4139551E-2],"categories":[],"categories_nodes":[],"categories_segments":[],"categories_sizes":[],"default_left":[0,0,0,0,0,0,0,0,0,0,0,0,0,0,0,0,0,0,0,0,0],"id":59,"left_children":[1,3,5,7,9,11,-1,13,15,-1,-1,17,19,-1,-1,-1,-1,-1,-1,-1,-1],"loss_changes":[3.2891693E2,4.966832E1,1.4492432E1,1.8772018E1,4.777358E0,1.8576202E0,0E0,1.0252823E1,2.5105562E0,0E0,0E0,1.0704597E0,2.6535034E-1,0E0,0E0,0E0,0E0,0E0,0E0,0E0,0E0],"parents":[2147483647,0,0,1,1,2,2,3,3,4,4,5,5,7,7,8,8,11,11,12,12],"right_children":[2,4,6,8,10,12,-1,14,16,-1,-1,18,20,-1,-1,-1,-1,-1,-1,-1,-1],"split_conditions":[1.5193055E0,3.7E1,2.0849182E1,2.098855E0,9.5688904E2,1.5971402E0,-3.454347E-2,2.2482152E0,6.621606E-1,-1.606938E-2,4.6813715E-2,3.4E1,3.595389E-2,-5E-2,-5.6514055E-3,-1.3294096E-2,3.4209862E-2,-9.988445E-3,2.7107934E-2,5E-2,1.4139551E-2],"split_indices":[40,13,11,27,44,40,0,95,2,0,0,13,68,0,0,0,0,0,0,0,0],"split_type":[0,0,0,0,0,0,0,0,0,0,0,0,0,0,0,0,0,0,0,0,0],"sum_hessian":[4.3410068E2,2.4191545E2,1.9218521E2,2.2338074E2,1.853472E1,1.8838214E2,3.8030741E0,2.1387772E2,9.503019E0,2.600202E0,1.5934518E1,4.3038373E0,1.8407831E2,1.9984125E2,1.4036469E1,2.7995574E0,6.7034626E0,2.2180295E0,2.085808E0,1.8167436E2,2.403936E0],"tree_param":{"num_deleted":"0","num_feature":"104","num_nodes":"21","size_leaf_vector":"1"}},{"base_weights":[2.142761E-3,-5E-2,9.257687E-1,-4.5270335E-2,5E-2],"categories":[],"categories_nodes":[],"categories_segments":[],"categories_sizes":[],"default_left":[0,0,0,0,0],"id":60,"left_children":[1,-1,3,-1,-1],"loss_changes":[4.028976E2,0E0,4.8754242E1,0E0,0E0],"parents":[2147483647,0,0,2,2],"right_children":[2,-1,4,-1,-1],"split_conditions":[1.3489815E0,-5E-2,3.1534474E0,-4.5270335E-2,5E-2],"split_indices":[35,0,18,0,0],"split_type":[0,0,0,0,0],"sum_hessian":[4.1481418E2,1.9476184E2,2.2005234E2,1.23166895E1,2.0773564E2],"tree_param":{"num_deleted":"0","num_feature":"104","num_nodes":"5","size_leaf_vector":"1"}},{"base_weights":[2.3743661E-2,-5E-2,9.2462474E-1,-4.5047857E-2,5E-2],"categories":[],"categories_nodes":[],"categories_segments":[],"categories_sizes":[],"default_left":[0,0,0,0,0],"id":61,"left_children":[1,-1,3,-1,-1],"loss_changes":[3.8873233E2,0E0,4.7649902E1,0E0,0E0],"parents":[2147483647,0,0,2,2],"right_children":[2,-1,4,-1,-1],"split_conditions":[1.3489815E0,-5E-2,3.1534474E0,-4.5047857E-2,5E-2],"split_indices":[35,0,18,0,0],"split_type":[0,0,0,0,0],"sum_hessian":[4.029767E2,1.849095E2,2.1806721E2,1.2085573E1,2.0598163E2],"tree_param":{"num_deleted":"0","num_feature":"104","num_nodes":"5","size_leaf_vector":"1"}},{"base_weights":[4.0860707E-4,-5E-2,9.124452E-1,-4.494499E-2,5E-2],"categories":[],"categories_nodes":[],"categories_segments":[],"categories_sizes":[],"default_left":[0,0,0,0,0],"id":62,"left_children":[1,-1,3,-1,-1],"loss_changes":[3.6093802E2,0E0,4.7183365E1,0E0,0E0],"parents":[2147483647,0,0,2,2],"right_children":[2,-1,4,-1,-1],"split_conditions":[1.3489815E0,-5E-2,3.1534474E0,-4.494499E-2,5E-2],"split_indices":[35,0,18,0,0],"split_type":[0,0,0,0,0],"sum_hessian":[3.7867157E2,1.7727263E2,2.0139893E2,1.2072418E1,1.8932652E2],"tree_param":{"num_deleted":"0","num_feature":"104","num_nodes":"5","size_leaf_vector":"1"}},{"base_weights":[3.3144099E-3,-7.7822596E-1,9.298447E-1,-9.031819E-1,7.413719E-1,-3.5935257E-2,9.831654E-1,-9.8361146E-1,-1.6192238E-1,-4.0131165E-3,4.463093E-2,3.0787995E-1,1E0,-5E-2,6.5778266E-3,3.130581E-2,-3.8712356E-2,-1.9154944E-2,3.35838E-2,5E-2,9.610585E-3],"categories":[],"categories_nodes":[],"categories_segments":[],"categories_sizes":[],"default_left":[0,0,0,0,0,0,0,0,0,0,0,0,0,0,0,0,0,0,0,0,0],"id":63,"left_children":[1,3,5,7,9,-1,11,13,15,-1,-1,17,19,-1,-1,-1,-1,-1,-1,-1,-1],"loss_changes":[2.639752E2,3.8888474E1,1.6074982E1,1.0629089E1,2.1469755E0,0E0,3.3023682E0,4.835205E0,1.0797836E1,0E0,0E0,3.321238E0,7.510681E-1,0E0,0E0,0E0,0E0,0E0,0E0,0E0,0E0],"parents":[2147483647,0,0,1,1,2,2,3,3,4,4,6,6,7,7,8,8,11,11,12,12],"right_children":[2,4,6,8,10,-1,12,14,16,-1,-1,18,20,-1,-1,-1,-1,-1,-1,-1,-1],"split_conditions":[1.4115702E0,3.7E1,4.4968063E-5,1.0601424E0,7.197581E-1,-3.5935257E-2,1.5971402E0,2.759948E0,3.357259E-2,-4.0131165E-3,4.463093E-2,-1.4105948E0,5.258782E-2,-5E-2,6.5778266E-3,3.130581E-2,-3.8712356E-2,-1.9154944E-2,3.35838E-2,5E-2,9.610585E-3],"split_indices":[40,13,52,40,6,0,40,27,69,0,0,37,63,0,0,0,0,0,0,0,0],"split_type":[0,0,0,0,0,0,0,0,0,0,0,0,0,0,0,0,0,0,0,0,0],"sum_hessian":[3.6054718E2,1.957498E2,1.6479738E2,1.8162605E2,1.4123749E1,4.381263E0,1.6041612E2,1.6325801E2,1.8368036E1,2.3416417E0,1.1782107E1,9.164983E0,1.5125113E2,1.5988512E2,3.3729076E0,8.011935E0,1.0356101E1,3.124438E0,6.040545E0,1.490351E2,2.2160354E0],"tree_param":{"num_deleted":"0","num_feature":"104","num_nodes":"21","size_leaf_vector":"1"}},{"base_weights":[6.256969E-3,-5E-2,9.091949E-1,-4.4192288E-2,5E-2],"categories":[],"categories_nodes":[],"categories_segments":[],"categories_sizes":[],"default_left":[0,0,0,0,0],"id":64,"left_children":[1,-1,3,-1,-1],"loss_changes":[3.2899216E2,0E0,4.27704E1,0E0,0E0],"parents":[2147483647,0,0,2,2],"right_children":[2,-1,4,-1,-1],"split_conditions":[1.3489815E0,-5E-2,3.1534474E0,-4.4192288E-2,5E-2],"split_indices":[35,0,18,0,0],"split_type":[0,0,0,0,0],"sum_hessian":[3.480453E2,1.619995E2,1.8604579E2,1.105229E1,1.749935E2],"tree_param":{"num_deleted":"0","num_feature":"104","num_nodes":"5","size_leaf_vector":"1"}},{"base_weights":[1.3343549E-2,-5E-2,9.122253E-1,-4.362396E-2,5E-2],"categories":[],"categories_nodes":[],"categories_segments":[],"categories_sizes":[],"default_left":[0,0,0,0,0],"id":65,"left_children":[1,-1,3,-1,-1],"loss_changes":[3.1894543E2,0E0,3.9719162E1,0E0,0E0],"parents":[2147483647,0,0,2,2],"right_children":[2,-1,4,-1,-1],"split_conditions":[1.3489815E0,-5E-2,3.1534474E0,-4.362396E-2,5E-2],"split_indices":[35,0,18,0,0],"split_type":[0,0,0,0,0],"sum_hessian":[3.3728937E2,1.5623712E2,1.8105225E2,1.0300996E1,1.7075125E2],"tree_param":{"num_deleted":"0","num_feature":"104","num_nodes":"5","size_leaf_vector":"1"}},{"base_weights":[1.0154807E-2,-5E-2,9.035999E-1,-4.35829E-2,5E-2],"categories":[],"categories_nodes":[],"categories_segments":[],"categories_sizes":[],"default_left":[0,0,0,0,0],"id":66,"left_children":[1,-1,3,-1,-1],"loss_changes":[3.0022372E2,0E0,3.963527E1,0E0,0E0],"parents":[2147483647,0,0,2,2],"right_children":[2,-1,4,-1,-1],"split_conditions":[1.3489815E0,-5E-2,3.1534474E0,-4.35829E-2,5E-2],"split_indices":[35,0,18,0,0],"split_type":[0,0,0,0,0],"sum_hessian":[3.20995E2,1.4863914E2,1.7235583E2,1.0347772E1,1.6200807E2],"tree_param":{"num_deleted":"0","num_feature":"104","num_nodes":"5","size_leaf_vector":"1"}},{"base_weights":[-9.866293E-6,-5E-2,9.018857E-1,5E-2,-4.2945318E-2],"categories":[],"categories_nodes":[],"categories_segments":[],"categories_sizes":[],"default_left":[0,0,0,0,0],"id":67,"left_children":[1,-1,3,-1,-1],"loss_changes":[2.8180215E2,0E0,3.6425568E1,0E0,0E0],"parents":[2147483647,0,0,2,2],"right_children":[2,-1,4,-1,-1],"split_conditions":[1.3489815E0,-5E-2,5.248405E-2,5E-2,-4.2945318E-2],"split_indices":[35,0,15,0,0],"split_type":[0,0,0,0,0],"sum_hessian":[3.0193365E2,1.4145029E2,1.6048337E2,1.509107E2,9.5726595E0],"tree_param":{"num_deleted":"0","num_feature":"104","num_nodes":"5","size_leaf_vector":"1"}},{"base_weights":[1.5586806E-2,-5E-2,9.028841E-1,-4.255819E-2,5E-2],"categories":[],"categories_nodes":[],"categories_segments":[],"categories_sizes":[],"default_left":[0,0,0,0,0],"id":68,"left_children":[1,-1,3,-1,-1],"loss_changes":[2.7193353E2,0E0,3.4775116E1,0E0,0E0],"parents":[2147483647,0,0,2,2],"right_children":[2,-1,4,-1,-1],"split_conditions":[1.3489815E0,-5E-2,3.1534474E0,-4.255819E-2,5E-2],"split_indices":[35,0,18,0,0],"split_type":[0,0,0,0,0],"sum_hessian":[2.9224124E2,1.3477592E2,1.5746532E2,9.170486E0,1.4829483E2],"tree_param":{"num_deleted":"0","num_feature":"104","num_nodes":"5","size_leaf_vector":"1"}},{"base_weights":[1.0596785E-2,-7.2181064E-1,9.516336E-1,-9.0410215E-1,2.1590059E-1,9.9158055E-1,-2.8323216E-2,-9.5724064E-1,2.699563E-1,-3.8834387E-1,4.68475E-1,9.5927855E-3,5E-2,1.1003863E-2,-4.9535524E-2,-1.2886825E-2,3.0542199E-2,7.838788E-3,-3.496257E-2,3.010881E-2,-7.797158E-3],"categories":[],"categories_nodes":[],"categories_segments":[],"categories_sizes":[],"default_left":[0,0,0,0,0,0,0,0,0,0,0,0,0,0,0,0,0,0,0,0,0],"id":69,"left_children":[1,3,5,7,9,11,-1,13,15,17,19,-1,-1,-1,-1,-1,-1,-1,-1,-1,-1],"loss_changes":[1.9332837E2,2.7356148E1,8.567741E0,8.780838E0,4.5288124E0,1.1765518E0,0E0,5.4470367E0,1.6272633E0,1.768009E0,1.8702159E0,0E0,0E0,0E0,0E0,0E0,0E0,0E0,0E0,0E0,0E0],"parents":[2147483647,0,0,1,1,2,2,3,3,4,4,5,5,7,7,8,8,9,9,10,10],"right_children":[2,4,6,8,10,12,-1,14,16,18,20,-1,-1,-1,-1,-1,-1,-1,-1,-1,-1],"split_conditions":[1.5193055E0,9.1871E4,2.0849182E1,2.098855E0,2.8558634E-4,1.5971402E0,-2.8323216E-2,-1.8316945E0,9.011308E-1,1.2317706E-3,5.38431E-1,9.5927855E-3,5E-2,1.1003863E-2,-4.9535524E-2,-1.2886825E-2,3.0542199E-2,7.838788E-3,-3.496257E-2,3.010881E-2,-7.797158E-3],"split_indices":[40,1,11,27,72,40,0,34,40,55,98,0,0,0,0,0,0,0,0,0,0],"split_type":[0,0,0,0,0,0,0,0,0,0,0,0,0,0,0,0,0,0,0,0,0],"sum_hessian":[2.7650894E2,1.5575275E2,1.2075619E2,1.3046246E2,2.5290285E1,1.1833597E2,2.4202192E0,1.251667E2,5.2957582E0,7.138195E0,1.815209E1,2.8768942E0,1.1545907E2,3.1517456E0,1.2201495E2,2.2698655E0,3.0258927E0,2.9526887E0,4.1855063E0,1.5009482E1,3.1426072E0],"tree_param":{"num_deleted":"0","num_feature":"104","num_nodes":"21","size_leaf_vector":"1"}},{"base_weights":[-1.0747932E-2,-5E-2,8.902667E-1,-4.192939E-2,5E-2],"categories":[],"categories_nodes":[],"categories_segments":[],"categories_sizes":[],"default_left":[0,0,0,0,0],"id":70,"left_children":[1,-1,3,-1,-1],"loss_changes":[2.397528E2,0E0,3.211355E1,0E0,0E0],"parents":[2147483647,0,0,2,2],"right_children":[2,-1,4,-1,-1],"split_conditions":[1.3489815E0,-5E-2,3.1534474E0,-4.192939E-2,5E-2],"split_indices":[35,0,18,0,0],"split_type":[0,0,0,0,0],"sum_hessian":[2.6105872E2,1.2335198E2,1.3770673E2,8.589206E0,1.2911752E2],"tree_param":{"num_deleted":"0","num_feature":"104","num_nodes":"5","size_leaf_vector":"1"}},{"base_weights":[1.7363656E-2,-5E-2,8.946074E-1,-4.1547466E-2,5E-2],"categories":[],"categories_nodes":[],"categories_segments":[],"categories_sizes":[],"default_left":[0,0,0,0,0],"id":71,"left_children":[1,-1,3,-1,-1],"loss_changes":[2.3500108E2,0E0,3.0796684E1,0E0,0E0],"parents":[2147483647,0,0,2,2],"right_children":[2,-1,4,-1,-1],"split_conditions":[1.3489815E0,-5E-2,3.1534474E0,-4.1547466E-2,5E-2],"split_indices":[35,0,18,0,0],"split_type":[0,0,0,0,0],"sum_hessian":[2.5613885E2,1.17680016E2,1.3845883E2,8.248513E0,1.3021033E2],"tree_param":{"num_deleted":"0","num_feature":"104","num_nodes":"5","size_leaf_vector":"1"}},{"base_weights":[5.271351E-3,-7.37715E-1,9.454754E-1,-9.0416116E-1,1.04843825E-1,-2.603798E-2,9.8328197E-1,-9.568593E-1,2.4958378E-1,-1.821226E-1,6.1733776E-1,9.805142E-3,4.9941063E-2,6.463916E-3,-4.9080107E-2,2.7573392E-2,-8.076653E-3,2.1807348E-2,-3.126336E-2,4.0640505E-3,3.7354268E-2],"categories":[],"categories_nodes":[],"categories_segments":[],"categories_sizes":[],"default_left":[0,0,0,0,0,0,0,0,0,0,0,0,0,0,0,0,0,0,0,0,0],"id":72,"left_children":[1,3,5,7,9,-1,11,13,15,17,19,-1,-1,-1,-1,-1,-1,-1,-1,-1,-1],"loss_changes":[1.7191026E2,1.9468704E1,7.045517E0,7.4697723E0,3.8235703E0,0E0,9.1204834E-1,3.2205276E0,9.984757E-1,5.266309E0,5.211413E-1,0E0,0E0,0E0,0E0,0E0,0E0,0E0,0E0,0E0,0E0],"parents":[2147483647,0,0,1,1,2,2,3,3,4,4,6,6,7,7,8,8,9,9,10,10],"right_children":[2,4,6,8,10,-1,12,14,16,18,20,-1,-1,-1,-1,-1,-1,-1,-1,-1,-1],"split_conditions":[1.5193055E0,9.4369495E2,4.4968063E-5,2.098855E0,9.644953E-1,-2.603798E-2,1.5971402E0,-1.8316945E0,-9.429885E-1,1.6155945E0,3.3934616E-2,9.805142E-3,4.9941063E-2,6.463916E-3,-4.9080107E-2,2.7573392E-2,-8.076653E-3,2.1807348E-2,-3.126336E-2,4.0640505E-3,3.7354268E-2],"split_indices":[40,0,52,27,40,0,40,34,37,86,77,0,0,0,0,0,0,0,0,0,0],"split_type":[0,0,0,0,0,0,0,0,0,0,0,0,0,0,0,0,0,0,0,0,0],"sum_hessian":[2.4209584E2,1.3547159E2,1.0662425E2,1.1300199E2,2.2469591E1,2.0379672E0,1.0458629E2,1.08392395E2,4.6096025E0,1.5230614E1,7.238977E0,2.5519307E0,1.02034355E2,2.2260454E0,1.0616634E2,2.2642093E0,2.3453932E0,6.372026E0,8.858587E0,2.04459E0,5.1943874E0],"tree_param":{"num_deleted":"0","num_feature":"104","num_nodes":"21","size_leaf_vector":"1"}},{"base_weights":[8.880029E-3,-5E-2,8.929229E-1,5E-2,-4.0357973E-2],"categories":[],"categories_nodes":[],"categories_segments":[],"categories_sizes":[],"default_left":[0,0,0,0,0],"id":73,"left_children":[1,-1,3,-1,-1],"loss_changes":[2.114474E2,0E0,2.6766151E1,0E0,0E0],"parents":[2147483647,0,0,2,2],"right_children":[2,-1,4,-1,-1],"split_conditions":[1.3489815E0,-5E-2,4.017687E-2,5E-2,-4.0357973E-2],"split_indices":[35,0,68,0,0],"split_type":[0,0,0,0,0],"sum_hessian":[2.311416E2,1.0734527E2,1.23796326E2,1.16546455E2,7.249874E0],"tree_param":{"num_deleted":"0","num_feature":"104","num_nodes":"5","size_leaf_vector":"1"}},{"base_weights":[-1.1547037E-2,-7.151058E-1,9.562724E-1,-8.461347E-1,6.36748E-1,4.9616665E-2,-1.28664775E-2,-9.612005E-1,-1.300784E-1,-9.4782235E-3,4.157358E-2,-1.2658513E-2,-4.915501E-2,-3.0483676E-2,2.3741564E-2],"categories":[],"categories_nodes":[],"categories_segments":[],"categories_sizes":[],"default_left":[0,0,0,0,0,0,0,0,0,0,0,0,0,0,0],"id":74,"left_children":[1,3,5,7,9,-1,-1,11,13,-1,-1,-1,-1,-1,-1],"loss_changes":[1.5127548E2,2.3861374E1,4.6038895E0,9.482254E0,2.3276033E0,0E0,0E0,1.0753174E0,5.9942813E0,0E0,0E0,0E0,0E0,0E0,0E0],"parents":[2147483647,0,0,1,1,2,2,3,3,4,4,7,7,8,8],"right_children":[2,4,6,8,10,-1,-1,12,14,-1,-1,-1,-1,-1,-1],"split_conditions":[1.5971402E0,3.7E1,2.0142134E1,1.0601424E0,2.5509833E-4,4.9616665E-2,-1.28664775E-2,-1.1350899E0,-4.2787954E-1,-9.4782235E-3,4.157358E-2,-1.2658513E-2,-4.915501E-2,-3.0483676E-2,2.3741564E-2],"split_indices":[40,13,11,40,54,0,0,34,38,0,0,0,0,0,0],"split_type":[0,0,0,0,0,0,0,0,0,0,0,0,0,0,0],"sum_hessian":[2.181555E2,1.2662638E2,9.152912E1,1.1611963E2,1.0506752E1,8.924204E1,2.287081E0,9.9453384E1,1.6666246E1,2.013867E0,8.492886E0,3.737539E0,9.571584E1,9.2872305E0,7.3790154E0],"tree_param":{"num_deleted":"0","num_feature":"104","num_nodes":"15","size_leaf_vector":"1"}},{"base_weights":[2.2372815E-3,-5E-2,8.8068E-1,-4.0115416E-2,5E-2],"categories":[],"categories_nodes":[],"categories_segments":[],"categories_sizes":[],"default_left":[0,0,0,0,0],"id":75,"left_children":[1,-1,3,-1,-1],"loss_changes":[1.9105176E2,0E0,2.5978127E1,0E0,0E0],"parents":[2147483647,0,0,2,2],"right_children":[2,-1,4,-1,-1],"split_conditions":[1.3489815E0,-5E-2,3.1534474E0,-4.0115416E-2,5E-2],"split_indices":[35,0,18,0,0],"split_type":[0,0,0,0,0],"sum_hessian":[2.120739E2,9.869659E1,1.1337731E2,7.118811E0,1.062585E2],"tree_param":{"num_deleted":"0","num_feature":"104","num_nodes":"5","size_leaf_vector":"1"}},{"base_weights":[1.2169653E-3,-5E-2,8.769154E-1,-3.977596E-2,5E-2],"categories":[],"categories_nodes":[],"categories_segments":[],"categories_sizes":[],"default_left":[0,0,0,0,0],"id":76,"left_children":[1,-1,3,-1,-1],"loss_changes":[1.805329E2,0E0,2.4978157E1,0E0,0E0],"parents":[2147483647,0,0,2,2],"right_children":[2,-1,4,-1,-1],"split_conditions":[1.3489815E0,-5E-2,3.1534474E0,-3.977596E-2,5E-2],"split_indices":[35,0,18,0,0],"split_type":[0,0,0,0,0],"sum_hessian":[2.014754E2,9.37608E1,1.0771461E2,6.8837733E0,1.0083083E2],"tree_param":{"num_deleted":"0","num_feature":"104","num_nodes":"5","size_leaf_vector":"1"}},{"base_weights":[2.437501E-3,-5E-2,8.768346E-1,-3.9216556E-2,5E-2],"categories":[],"categories_nodes":[],"categories_segments":[],"categories_sizes":[],"default_left":[0,0,0,0,0],"id":77,"left_children":[1,-1,3,-1,-1],"loss_changes":[1.7232089E2,0E0,2.3479294E1,0E0,0E0],"parents":[2147483647,0,0,2,2],"right_children":[2,-1,4,-1,-1],"split_conditions":[1.3489815E0,-5E-2,3.1534474E0,-3.9216556E-2,5E-2],"split_indices":[35,0,18,0,0],"split_type":[0,0,0,0,0],"sum_hessian":[1.9258939E2,8.959032E1,1.0299907E2,6.502978E0,9.6496086E1],"tree_param":{"num_deleted":"0","num_feature":"104","num_nodes":"5","size_leaf_vector":"1"}},{"base_weights":[1.8398972E-2,-4.9889706E-2,8.792332E-1,5E-2,-3.8689077E-2],"categories":[],"categories_nodes":[],"categories_segments":[],"categories_sizes":[],"default_left":[0,0,0,0,0],"id":78,"left_children":[1,-1,3,-1,-1],"loss_changes":[1.6602197E2,0E0,2.2208359E1,0E0,0E0],"parents":[2147483647,0,0,2,2],"right_children":[2,-1,4,-1,-1],"split_conditions":[1.3489815E0,-4.9889706E-2,4.017687E-2,5E-2,-3.8689077E-2],"split_indices":[35,0,68,0,0],"split_type":[0,0,0,0,0],"sum_hessian":[1.8578271E2,8.505694E1,1.0072578E2,9.455536E1,6.170415E0],"tree_param":{"num_deleted":"0","num_feature":"104","num_nodes":"5","size_leaf_vector":"1"}},{"base_weights":[-6.9968523E-3,-4.9794137E-2,8.6890644E-1,-3.8437854E-2,4.987706E-2],"categories":[],"categories_nodes":[],"categories_segments":[],"categories_sizes":[],"default_left":[0,0,0,0,0],"id":79,"left_children":[1,-1,3,-1,-1],"loss_changes":[1.548072E2,0E0,2.1501396E1,0E0,0E0],"parents":[2147483647,0,0,2,2],"right_children":[2,-1,4,-1,-1],"split_conditions":[1.3489815E0,-4.9794137E-2,3.1534474E0,-3.8437854E-2,4.987706E-2],"split_indices":[35,0,18,0,0],"split_type":[0,0,0,0,0],"sum_hessian":[1.747284E2,8.194235E1,9.278604E1,6.0325375E0,8.675351E1],"tree_param":{"num_deleted":"0","num_feature":"104","num_nodes":"5","size_leaf_vector":"1"}},{"base_weights":[-6.9105295E-3,8.725793E-1,-6.6774166E-1,-2.6802579E-2,9.316369E-1,-8.208288E-1,6.654635E-1,4.8884522E-2,4.206113E-1,2.010192E-2,-8.8595575E-1,3.9462738E-2,2.75531E-3,-5.8659064E-3,3.290167E-2,-4.6383422E-2,7.780276E-3],"categories":[],"categories_nodes":[],"categories_segments":[],"categories_sizes":[],"default_left":[0,0,0,0,0,0,0,0,0,0,0,0,0,0,0,0,0],"id":80,"left_children":[1,3,5,-1,7,9,11,-1,13,-1,15,-1,-1,-1,-1,-1,-1],"loss_changes":[9.8609276E1,7.054863E0,2.0862095E1,0E0,8.390541E-1,7.703537E0,7.502961E-1,0E0,1.34809E0,0E0,3.936821E0,0E0,0E0,0E0,0E0,0E0,0E0],"parents":[2147483647,0,0,1,1,2,2,4,4,5,5,6,6,8,8,10,10],"right_children":[2,4,6,-1,8,10,12,-1,14,-1,16,-1,-1,-1,-1,-1,-1],"split_conditions":[-1.311581E0,8.602167E-5,3.7E1,-2.6802579E-2,-1.6328387E0,-1.6421584E0,3.5296814E0,4.8884522E-2,3.3E1,2.010192E-2,2.098855E0,3.9462738E-2,2.75531E-3,-5.8659064E-3,3.290167E-2,-4.6383422E-2,7.780276E-3],"split_indices":[37,54,13,0,37,34,18,0,13,0,27,0,0,0,0,0,0],"split_type":[0,0,0,0,0,0,0,0,0,0,0,0,0,0,0,0,0],"sum_hessian":[1.656616E2,7.0797485E1,9.486412E1,2.1987934E0,6.8598694E1,8.5782646E1,9.081474E0,6.1252262E1,7.3464274E0,3.814411E0,8.196823E1,7.0628066E0,2.0186672E0,2.5593712E0,4.787056E0,7.902223E1,2.9460022E0],"tree_param":{"num_deleted":"0","num_feature":"104","num_nodes":"17","size_leaf_vector":"1"}},{"base_weights":[5.1437044E-3,-4.9594764E-2,8.651789E-1,-3.7833E-2,4.974146E-2],"categories":[],"categories_nodes":[],"categories_segments":[],"categories_sizes":[],"default_left":[0,0,0,0,0],"id":81,"left_children":[1,-1,3,-1,-1],"loss_changes":[1.4179573E2,0E0,2.017218E1,0E0,0E0],"parents":[2147483647,0,0,2,2],"right_children":[2,-1,4,-1,-1],"split_conditions":[1.3489815E0,-4.9594764E-2,3.1534474E0,-3.7833E-2,4.974146E-2],"split_indices":[35,0,18,0,0],"split_type":[0,0,0,0,0],"sum_hessian":[1.6136005E2,7.458593E1,8.677412E1,5.707293E0,8.1066826E1],"tree_param":{"num_deleted":"0","num_feature":"104","num_nodes":"5","size_leaf_vector":"1"}},{"base_weights":[7.664425E-3,-6.737229E-1,9.3787843E-1,-8.5020536E-1,2.9776216E-1,4.8932653E-2,-9.495707E-3,1.3926734E-2,-9.120714E-1,-3.524871E-2,4.1815795E-2,-4.7424834E-2,5.6780195E-3],"categories":[],"categories_nodes":[],"categories_segments":[],"categories_sizes":[],"default_left":[0,0,0,0,0,0,0,0,0,0,0,0,0],"id":82,"left_children":[1,3,5,7,9,-1,-1,-1,11,-1,-1,-1,-1],"loss_changes":[1.0017351E2,1.6148632E1,3.4441757E0,5.9359016E0,9.553522E0,0E0,0E0,0E0,2.9858665E0,0E0,0E0,0E0,0E0],"parents":[2147483647,0,0,1,1,2,2,3,3,4,4,8,8],"right_children":[2,4,6,8,10,-1,-1,-1,12,-1,-1,-1,-1],"split_conditions":[1.5971402E0,3.6E1,1.786446E1,-1.6421584E0,8.809192E0,4.8932653E-2,-9.495707E-3,1.3926734E-2,2.098855E0,-3.524871E-2,4.1815795E-2,-4.7424834E-2,5.6780195E-3],"split_indices":[40,13,11,34,0,0,0,0,27,0,0,0,0],"split_type":[0,0,0,0,0,0,0,0,0,0,0,0,0],"sum_hessian":[1.5404945E2,8.9235435E1,6.4814026E1,7.572815E1,1.3507287E1,6.2807735E1,2.0062914E0,3.5710092E0,7.2157135E1,4.5037327E0,9.003554E0,6.982762E1,2.3295121E0],"tree_param":{"num_deleted":"0","num_feature":"104","num_nodes":"13","size_leaf_vector":"1"}},{"base_weights":[-1.0931324E-3,-4.940316E-2,8.5713464E-1,-3.721121E-2,4.9534347E-2],"categories":[],"categories_nodes":[],"categories_segments":[],"categories_sizes":[],"default_left":[0,0,0,0,0],"id":83,"left_children":[1,-1,3,-1,-1],"loss_changes":[1.285935E2,0E0,1.8841442E1,0E0,0E0],"parents":[2147483647,0,0,2,2],"right_children":[2,-1,4,-1,-1],"split_conditions":[1.3489815E0,-4.940316E-2,3.1534474E0,-3.721121E-2,4.9534347E-2],"split_indices":[35,0,18,0,0],"split_type":[0,0,0,0,0],"sum_hessian":[1.4781458E2,6.860994E1,7.920464E1,5.3931384E0,7.381151E1],"tree_param":{"num_deleted":"0","num_feature":"104","num_nodes":"5","size_leaf_vector":"1"}},{"base_weights":[2.4018928E-3,-4.927474E-2,8.540438E-1,-3.677187E-2,4.9434472E-2],"categories":[],"categories_nodes":[],"categories_segments":[],"categories_sizes":[],"default_left":[0,0,0,0,0],"id":84,"left_children":[1,-1,3,-1,-1],"loss_changes":[1.2097909E2,0E0,1.7980503E1,0E0,0E0],"parents":[2147483647,0,0,2,2],"right_children":[2,-1,4,-1,-1],"split_conditions":[1.3489815E0,-4.927474E-2,3.1534474E0,-3.677187E-2,4.9434472E-2],"split_indices":[35,0,18,0,0],"split_type":[0,0,0,0,0],"sum_hessian":[1.3979356E2,6.4574E1,7.5219574E1,5.1773467E0,7.004223E1],"tree_param":{"num_deleted":"0","num_feature":"104","num_nodes":"5","size_leaf_vector":"1"}},{"base_weights":[-9.525616E-3,-6.8583155E-1,9.0234184E-1,-8.7075883E-1,2.9925603E-1,-1.215219E-2,9.521993E-1,-9.2949706E-1,1.3236645E-2,-3.3553466E-2,4.071779E-2,1.3865006E-2,4.8597876E-2,4.7988826E-3,-4.8309695E-2],"categories":[],"categories_nodes":[],"categories_segments":[],"categories_sizes":[],"default_left":[0,0,0,0,0,0,0,0,0,0,0,0,0,0,0],"id":85,"left_children":[1,3,5,7,9,-1,11,13,-1,-1,-1,-1,-1,-1,-1],"loss_changes":[8.3912544E1,1.4750092E1,3.772232E0,4.912426E0,8.007357E0,0E0,2.06913E-1,2.573494E0,0E0,0E0,0E0,0E0,0E0,0E0,0E0],"parents":[2147483647,0,0,1,1,2,2,3,3,4,4,6,6,7,7],"right_children":[2,4,6,8,10,-1,12,14,-1,-1,-1,-1,-1,-1,-1],"split_conditions":[1.5193055E0,3.6E1,1.322314E-3,2.098855E0,8.809192E0,-1.215219E-2,1.685633E0,-1.6944369E0,1.3236645E-2,-3.3553466E-2,4.071779E-2,1.3865006E-2,4.8597876E-2,4.7988826E-3,-4.8309695E-2],"split_indices":[40,13,8,27,0,0,40,34,0,0,0,0,0,0,0],"split_type":[0,0,0,0,0,0,0,0,0,0,0,0,0,0,0],"sum_hessian":[1.3205974E2,7.610822E1,5.595152E1,6.427433E1,1.1833891E1,2.0106587E0,5.394086E1,6.1457977E1,2.8163512E0,3.8936298E0,7.940261E0,2.3895102E0,5.155135E1,2.0116775E0,5.94463E1],"tree_param":{"num_deleted":"0","num_feature":"104","num_nodes":"15","size_leaf_vector":"1"}},{"base_weights":[1.7038327E-2,-4.9081676E-2,8.587308E-1,4.928996E-2,-3.5515744E-2],"categories":[],"categories_nodes":[],"categories_segments":[],"categories_sizes":[],"default_left":[0,0,0,0,0],"id":86,"left_children":[1,-1,3,-1,-1],"loss_changes":[1.1286552E2,0E0,1.5923199E1,0E0,0E0],"parents":[2147483647,0,0,2,2],"right_children":[2,-1,4,-1,-1],"split_conditions":[1.3489815E0,-4.9081676E-2,5.248405E-2,4.928996E-2,-3.5515744E-2],"split_indices":[35,0,15,0,0],"split_type":[0,0,0,0,0],"sum_hessian":[1.302662E2,5.9425297E1,7.0840904E1,6.6221436E1,4.61947E0],"tree_param":{"num_deleted":"0","num_feature":"104","num_nodes":"5","size_leaf_vector":"1"}},{"base_weights":[1.4216945E-2,-4.8962604E-2,8.5613406E-1,-3.493244E-2,4.9169414E-2],"categories":[],"categories_nodes":[],"categories_segments":[],"categories_sizes":[],"default_left":[0,0,0,0,0],"id":87,"left_children":[1,-1,3,-1,-1],"loss_changes":[1.0648387E2,0E0,1.5004711E1,0E0,0E0],"parents":[2147483647,0,0,2,2],"right_children":[2,-1,4,-1,-1],"split_conditions":[1.3489815E0,-4.8962604E-2,3.1534474E0,-3.493244E-2,4.9169414E-2],"split_indices":[35,0,18,0,0],"split_type":[0,0,0,0,0],"sum_hessian":[1.23304665E2,5.641191E1,6.689275E1,4.381351E0,6.2511402E1],"tree_param":{"num_deleted":"0","num_feature":"104","num_nodes":"5","size_leaf_vector":"1"}},{"base_weights":[6.506685E-3,-4.8850123E-2,8.497344E-1,-3.4638792E-2,4.9042735E-2],"categories":[],"categories_nodes":[],"categories_segments":[],"categories_sizes":[],"default_left":[0,0,0,0,0],"id":88,"left_children":[1,-1,3,-1,-1],"loss_changes":[1.0035177E2,0E0,1.4533913E1,0E0,0E0],"parents":[2147483647,0,0,2,2],"right_children":[2,-1,4,-1,-1],"split_conditions":[1.3489815E0,-4.8850123E-2,3.1534474E0,-3.4638792E-2,4.9042735E-2],"split_indices":[35,0,18,0,0],"split_type":[0,0,0,0,0],"sum_hessian":[1.17002464E2,5.386226E1,6.3140205E1,4.275526E0,5.8864677E1],"tree_param":{"num_deleted":"0","num_feature":"104","num_nodes":"5","size_leaf_vector":"1"}},{"base_weights":[2.4442826E-3,-4.8740085E-2,8.430476E-1,-3.4480717E-2,4.8921846E-2],"categories":[],"categories_nodes":[],"categories_segments":[],"categories_sizes":[],"default_left":[0,0,0,0,0],"id":89,"left_children":[1,-1,3,-1,-1],"loss_changes":[9.5049736E1,0E0,1.4256058E1,0E0,0E0],"parents":[2147483647,0,0,2,2],"right_children":[2,-1,4,-1,-1],"split_conditions":[1.3489815E0,-4.8740085E-2,3.1534474E0,-3.4480717E-2,4.8921846E-2],"split_indices":[35,0,18,0,0],"split_type":[0,0,0,0,0],"sum_hessian":[1.1170522E2,5.1506683E1,6.019854E1,4.2215643E0,5.5976974E1],"tree_param":{"num_deleted":"0","num_feature":"104","num_nodes":"5","size_leaf_vector":"1"}},{"base_weights":[-2.8895922E-3,-4.8631396E-2,8.3843863E-1,-3.410108E-2,4.8801403E-2],"categories":[],"categories_nodes":[],"categories_segments":[],"categories_sizes":[],"default_left":[0,0,0,0,0],"id":90,"left_children":[1,-1,3,-1,-1],"loss_changes":[9.016353E1,0E0,1.3711273E1,0E0,0E0],"parents":[2147483647,0,0,2,2],"right_children":[2,-1,4,-1,-1],"split_conditions":[1.3489815E0,-4.8631396E-2,3.1534474E0,-3.410108E-2,4.8801403E-2],"split_indices":[35,0,18,0,0],"split_type":[0,0,0,0,0],"sum_hessian":[1.0651332E2,4.9335606E1,5.7177715E1,4.0880475E0,5.308967E1],"tree_param":{"num_deleted":"0","num_feature":"104","num_nodes":"5","size_leaf_vector":"1"}},{"base_weights":[-8.467034E-3,-4.8509773E-2,8.354248E-1,-3.3444505E-2,4.8648488E-2],"categories":[],"categories_nodes":[],"categories_segments":[],"categories_sizes":[],"default_left":[0,0,0,0,0],"id":91,"left_children":[1,-1,3,-1,-1],"loss_changes":[8.507703E1,0E0,1.2856525E1,0E0,0E0],"parents":[2147483647,0,0,2,2],"right_children":[2,-1,4,-1,-1],"split_conditions":[1.3489815E0,-4.8509773E-2,3.1534474E0,-3.3444505E-2,4.8648488E-2],"split_indices":[35,0,18,0,0],"split_type":[0,0,0,0,0],"sum_hessian":[1.0082961E2,4.6984783E1,5.384483E1,3.8635423E0,4.998129E1],"tree_param":{"num_deleted":"0","num_feature":"104","num_nodes":"5","size_leaf_vector":"1"}},{"base_weights":[-1.2114792E-2,-4.837119E-2,8.274761E-1,-3.3242077E-2,4.8505E-2],"categories":[],"categories_nodes":[],"categories_segments":[],"categories_sizes":[],"default_left":[0,0,0,0,0],"id":92,"left_children":[1,-1,3,-1,-1],"loss_changes":[7.967015E1,0E0,1.2545532E1,0E0,0E0],"parents":[2147483647,0,0,2,2],"right_children":[2,-1,4,-1,-1],"split_conditions":[1.3489815E0,-4.837119E-2,3.1534474E0,-3.3242077E-2,4.8505E-2],"split_indices":[35,0,18,0,0],"split_type":[0,0,0,0,0],"sum_hessian":[9.533469E1,4.4451767E1,5.088292E1,3.7999444E0,4.7082977E1],"tree_param":{"num_deleted":"0","num_feature":"104","num_nodes":"5","size_leaf_vector":"1"}},{"base_weights":[-9.858886E-4,-4.8231624E-2,8.236682E-1,-3.314591E-2,4.8437726E-2],"categories":[],"categories_nodes":[],"categories_segments":[],"categories_sizes":[],"default_left":[0,0,0,0,0],"id":93,"left_children":[1,-1,3,-1,-1],"loss_changes":[7.605844E1,0E0,1.2408443E1,0E0,0E0],"parents":[2147483647,0,0,2,2],"right_children":[2,-1,4,-1,-1],"split_conditions":[1.3489815E0,-4.8231624E-2,3.1534474E0,-3.314591E-2,4.8437726E-2],"split_indices":[35,0,18,0,0],"split_type":[0,0,0,0,0],"sum_hessian":[9.171046E1,4.2134663E1,4.9575794E1,3.7734919E0,4.5802303E1],"tree_param":{"num_deleted":"0","num_feature":"104","num_nodes":"5","size_leaf_vector":"1"}},{"base_weights":[-1.2852088E-2,-4.813805E-2,8.192205E-1,-3.266059E-2,4.8294105E-2],"categories":[],"categories_nodes":[],"categories_segments":[],"categories_sizes":[],"default_left":[0,0,0,0,0],"id":94,"left_children":[1,-1,3,-1,-1],"loss_changes":[7.249008E1,0E0,1.1823067E1,0E0,0E0],"parents":[2147483647,0,0,2,2],"right_children":[2,-1,4,-1,-1],"split_conditions":[1.3489815E0,-4.813805E-2,3.1534474E0,-3.266059E-2,4.8294105E-2],"split_indices":[35,0,18,0,0],"split_type":[0,0,0,0,0],"sum_hessian":[8.771819E1,4.081217E1,4.6906025E1,3.6231456E0,4.328288E1],"tree_param":{"num_deleted":"0","num_feature":"104","num_nodes":"5","size_leaf_vector":"1"}},{"base_weights":[1.5415742E-2,-4.796432E-2,8.251475E-1,-3.1969126E-2,4.8245385E-2],"categories":[],"categories_nodes":[],"categories_segments":[],"categories_sizes":[],"default_left":[0,0,0,0,0],"id":95,"left_children":[1,-1,3,-1,-1],"loss_changes":[6.995782E1,0E0,1.1139763E1,0E0,0E0],"parents":[2147483647,0,0,2,2],"right_children":[2,-1,4,-1,-1],"split_conditions":[1.3489815E0,-4.796432E-2,3.1534474E0,-3.1969126E-2,4.8245385E-2],"split_indices":[35,0,18,0,0],"split_type":[0,0,0,0,0],"sum_hessian":[8.463281E1,3.8236645E1,4.6396168E1,3.419016E0,4.297715E1],"tree_param":{"num_deleted":"0","num_feature":"104","num_nodes":"5","size_leaf_vector":"1"}},{"base_weights":[4.3144496E-3,-4.785455E-2,8.201636E-1,-3.148693E-2,4.8098747E-2],"categories":[],"categories_nodes":[],"categories_segments":[],"categories_sizes":[],"default_left":[0,0,0,0,0],"id":96,"left_children":[1,-1,3,-1,-1],"loss_changes":[6.639353E1,0E0,1.062532E1,0E0,0E0],"parents":[2147483647,0,0,2,2],"right_children":[2,-1,4,-1,-1],"split_conditions":[1.3489815E0,-4.785455E-2,3.1534474E0,-3.148693E-2,4.8098747E-2],"split_indices":[35,0,18,0,0],"split_type":[0,0,0,0,0],"sum_hessian":[8.064502E1,3.686117E1,4.3783848E1,3.2877715E0,4.0496075E1],"tree_param":{"num_deleted":"0","num_feature":"104","num_nodes":"5","size_leaf_vector":"1"}},{"base_weights":[-9.292827E-3,-4.7716733E-2,8.117164E-1,-3.1086514E-2,4.7910057E-2],"categories":[],"categories_nodes":[],"categories_segments":[],"categories_sizes":[],"default_left":[0,0,0,0,0],"id":97,"left_children":[1,-1,3,-1,-1],"loss_changes":[6.206016E1,0E0,1.018148E1,0E0,0E0],"parents":[2147483647,0,0,2,2],"right_children":[2,-1,4,-1,-1],"split_conditions":[1.3489815E0,-4.7716733E-2,3.1534474E0,-3.1086514E-2,4.7910057E-2],"split_indices":[35,0,18,0,0],"split_type":[0,0,0,0,0],"sum_hessian":[7.598917E1,3.5175175E1,4.081399E1,3.1825032E0,3.763149E1],"tree_param":{"num_deleted":"0","num_feature":"104","num_nodes":"5","size_leaf_vector":"1"}},{"base_weights":[-4.6989378E-3,-4.7547195E-2,8.0747306E-1,4.777677E-2,-3.0714542E-2],"categories":[],"categories_nodes":[],"categories_segments":[],"categories_sizes":[],"default_left":[0,0,0,0,0],"id":98,"left_children":[1,-1,3,-1,-1],"loss_changes":[5.8606377E1,0E0,9.8139515E0,0E0,0E0],"parents":[2147483647,0,0,2,2],"right_children":[2,-1,4,-1,-1],"split_conditions":[1.3489815E0,-4.7547195E-2,4.017687E-2,4.777677E-2,-3.0714542E-2],"split_indices":[35,0,68,0,0],"split_type":[0,0,0,0,0],"sum_hessian":[7.226108E1,3.3217876E1,3.90432E1,3.5954723E1,3.088476E0],"tree_param":{"num_deleted":"0","num_feature":"104","num_nodes":"5","size_leaf_vector":"1"}},{"base_weights":[-4.490987E-3,-4.741001E-2,7.9901373E-1,-3.0812344E-2,4.7660705E-2],"categories":[],"categories_nodes":[],"categories_segments":[],"categories_sizes":[],"default_left":[0,0,0,0,0],"id":99,"left_children":[1,-1,3,-1,-1],"loss_changes":[5.574853E1,0E0,9.842199E0,0E0,0E0],"parents":[2147483647,0,0,2,2],"right_children":[2,-1,4,-1,-1],"split_conditions":[1.3489815E0,-4.741001E-2,3.1534474E0,-3.0812344E-2,4.7660705E-2],"split_indices":[35,0,18,0,0],"split_type":[0,0,0,0,0],"sum_hessian":[6.952193E1,3.1805956E1,3.7715973E1,3.1168172E0,3.4599155E1],"tree_param":{"num_deleted":"0","num_feature":"104","num_nodes":"5","size_leaf_vector":"1"}},{"base_weights":[8.171251E-3,-4.7261234E-2,8.0703855E-1,4.7574416E-2,-2.9680366E-2],"categories":[],"categories_nodes":[],"categories_segments":[],"categories_sizes":[],"default_left":[0,0,0,0,0],"id":100,"left_children":[1,-1,3,-1,-1],"loss_changes":[5.4081627E1,0E0,8.94405E0,0E0,0E0],"parents":[2147483647,0,0,2,2],"right_children":[2,-1,4,-1,-1],"split_conditions":[1.3489815E0,-4.7261234E-2,5.248405E-2,4.7574416E-2,-2.9680366E-2],"split_indices":[35,0,15,0,0],"split_type":[0,0,0,0,0],"sum_hessian":[6.700396E1,3.0380459E1,3.6623505E1,3.3781E1,2.8425057E0],"tree_param":{"num_deleted":"0","num_feature":"104","num_nodes":"5","size_leaf_vector":"1"}},{"base_weights":[1.7094113E-3,-4.708954E-2,7.946864E-1,-2.9790297E-2,4.7395807E-2],"categories":[],"categories_nodes":[],"categories_segments":[],"categories_sizes":[],"default_left":[0,0,0,0,0],"id":101,"left_children":[1,-1,3,-1,-1],"loss_changes":[5.0509544E1,0E0,8.944525E0,0E0,0E0],"parents":[2147483647,0,0,2,2],"right_children":[2,-1,4,-1,-1],"split_conditions":[1.3489815E0,-4.708954E-2,3.1534474E0,-2.9790297E-2,4.7395807E-2],"split_indices":[35,0,18,0,0],"split_type":[0,0,0,0,0],"sum_hessian":[6.350975E1,2.8830866E1,3.4678883E1,2.8688366E0,3.1810047E1],"tree_param":{"num_deleted":"0","num_feature":"104","num_nodes":"5","size_leaf_vector":"1"}},{"base_weights":[-1.5878547E-2,8.082877E-1,-6.195753E-1,4.4880252E-2,6.4029433E-3,-8.022666E-1,2.658298E-1,6.318699E-3,-4.4983797E-2,-2.1060828E-2,3.2842632E-2],"categories":[],"categories_nodes":[],"categories_segments":[],"categories_sizes":[],"default_left":[0,0,0,0,0,0,0,0,0,0,0],"id":102,"left_children":[1,3,5,-1,-1,7,9,-1,-1,-1,-1],"loss_changes":[3.1654448E1,1.4053917E0,6.3617516E0,0E0,0E0,3.02384E0,2.6429887E0,0E0,0E0,0E0,0E0],"parents":[2147483647,0,0,1,1,2,2,5,5,6,6],"right_children":[2,4,6,-1,-1,8,10,-1,-1,-1,-1],"split_conditions":[-1.311581E0,-1.6328387E0,3.6E1,4.4880252E-2,6.4029433E-3,-1.1350899E0,3.0503634E-2,6.318699E-3,-4.4983797E-2,-2.1060828E-2,3.2842632E-2],"split_indices":[37,37,13,0,0,34,12,0,0,0,0],"split_type":[0,0,0,0,0,0,0,0,0,0,0],"sum_hessian":[5.960802E1,2.4915546E1,3.469247E1,2.1458778E1,3.4567692E0,2.8914217E1,5.7782555E0,2.6885493E0,2.6225668E1,2.039797E0,3.7384582E0],"tree_param":{"num_deleted":"0","num_feature":"104","num_nodes":"11","size_leaf_vector":"1"}},{"base_weights":[-6.357751E-3,-4.6824593E-2,7.8142333E-1,-2.9458929E-2,4.711689E-2],"categories":[],"categories_nodes":[],"categories_segments":[],"categories_sizes":[],"default_left":[0,0,0,0,0],"id":103,"left_children":[1,-1,3,-1,-1],"loss_changes":[4.592123E1,0E0,8.595987E0,0E0,0E0],"parents":[2147483647,0,0,2,2],"right_children":[2,-1,4,-1,-1],"split_conditions":[1.3489815E0,-4.6824593E-2,3.1534474E0,-2.9458929E-2,4.711689E-2],"split_indices":[35,0,18,0,0],"split_type":[0,0,0,0,0],"sum_hessian":[5.867297E1,2.6732424E1,3.1940548E1,2.796685E0,2.9143864E1],"tree_param":{"num_deleted":"0","num_feature":"104","num_nodes":"5","size_leaf_vector":"1"}},{"base_weights":[4.0592154E-4,-4.6658188E-2,7.8177977E-1,-2.8876577E-2,4.7001544E-2],"categories":[],"categories_nodes":[],"categories_segments":[],"categories_sizes":[],"default_left":[0,0,0,0,0],"id":104,"left_children":[1,-1,3,-1,-1],"loss_changes":[4.408424E1,0E0,8.162527E0,0E0,0E0],"parents":[2147483647,0,0,2,2],"right_children":[2,-1,4,-1,-1],"split_conditions":[1.3489815E0,-4.6658188E-2,3.1534474E0,-2.8876577E-2,4.7001544E-2],"split_indices":[35,0,18,0,0],"split_type":[0,0,0,0,0],"sum_hessian":[5.643333E1,2.5535503E1,3.0897825E1,2.6694486E0,2.8228378E1],"tree_param":{"num_deleted":"0","num_feature":"104","num_nodes":"5","size_leaf_vector":"1"}},{"base_weights":[-5.296517E-3,-4.6521086E-2,7.779194E-1,-2.8384363E-2,4.6836488E-2],"categories":[],"categories_nodes":[],"categories_segments":[],"categories_sizes":[],"default_left":[0,0,0,0,0],"id":105,"left_children":[1,-1,3,-1,-1],"loss_changes":[4.209701E1,0E0,7.7885685E0,0E0,0E0],"parents":[2147483647,0,0,2,2],"right_children":[2,-1,4,-1,-1],"split_conditions":[1.3489815E0,-4.6521086E-2,3.1534474E0,-2.8384363E-2,4.6836488E-2],"split_indices":[35,0,18,0,0],"split_type":[0,0,0,0,0],"sum_hessian":[5.410124E1,2.4631227E1,2.947001E1,2.5673661E0,2.6902645E1],"tree_param":{"num_deleted":"0","num_feature":"104","num_nodes":"5","size_leaf_vector":"1"}},{"base_weights":[-2.4306264E-2,-4.6306532E-2,7.631573E-1,-2.8035555E-2,4.6507325E-2],"categories":[],"categories_nodes":[],"categories_segments":[],"categories_sizes":[],"default_left":[0,0,0,0,0],"id":106,"left_children":[1,-1,3,-1,-1],"loss_changes":[3.855361E1,0E0,7.4577065E0,0E0,0E0],"parents":[2147483647,0,0,2,2],"right_children":[2,-1,4,-1,-1],"split_conditions":[1.3489815E0,-4.6306532E-2,3.1534474E0,-2.8035555E-2,4.6507325E-2],"split_indices":[35,0,18,0,0],"split_type":[0,0,0,0,0],"sum_hessian":[5.0298588E1,2.3282574E1,2.7016014E1,2.4978497E0,2.4518164E1],"tree_param":{"num_deleted":"0","num_feature":"104","num_nodes":"5","size_leaf_vector":"1"}},{"base_weights":[-2.0610733E-2,-4.6120152E-2,7.5844985E-1,-2.7776811E-2,4.6362303E-2],"categories":[],"categories_nodes":[],"categories_segments":[],"categories_sizes":[],"default_left":[0,0,0,0,0],"id":107,"left_children":[1,-1,3,-1,-1],"loss_changes":[3.6741585E1,0E0,7.2598267E0,0E0,0E0],"parents":[2147483647,0,0,2,2],"right_children":[2,-1,4,-1,-1],"split_conditions":[1.3489815E0,-4.6120152E-2,3.1534474E0,-2.7776811E-2,4.6362303E-2],"split_indices":[35,0,18,0,0],"split_type":[0,0,0,0,0],"sum_hessian":[4.8305813E1,2.2218761E1,2.6087051E1,2.4480438E0,2.3639008E1],"tree_param":{"num_deleted":"0","num_feature":"104","num_nodes":"5","size_leaf_vector":"1"}},{"base_weights":[-6.6389167E-4,-6.1077124E-1,4.277342E-2,-7.720085E-1,2.275563E-1,-1.4830763E-3,-4.3311E-2,-1.14116715E-2,2.7194146E-2],"categories":[],"categories_nodes":[],"categories_segments":[],"categories_sizes":[],"default_left":[0,0,0,0,0,0,0,0,0],"id":108,"left_children":[1,3,-1,5,7,-1,-1,-1,-1],"loss_changes":[2.6756937E1,4.394184E0,0E0,1.7348242E0,1.1665779E0,0E0,0E0,0E0,0E0],"parents":[2147483647,0,0,1,1,3,3,4,4],"right_children":[2,4,-1,6,8,-1,-1,-1,-1],"split_conditions":[1.5971402E0,3.6E1,4.277342E-2,-1.1350899E0,9.886435E0,-1.4830763E-3,-4.3311E-2,-1.14116715E-2,2.7194146E-2],"split_indices":[40,13,0,34,48,0,0,0,0],"split_type":[0,0,0,0,0,0,0,0,0],"sum_hessian":[4.7225227E1,2.7909328E1,1.9315899E1,2.3540043E1,4.369286E0,2.9471817E0,2.0592861E1,2.0182292E0,2.3510568E0],"tree_param":{"num_deleted":"0","num_feature":"104","num_nodes":"9","size_leaf_vector":"1"}},{"base_weights":[-1.5217228E-2,-4.5779042E-2,7.513155E-1,-2.7171573E-2,4.609203E-2],"categories":[],"categories_nodes":[],"categories_segments":[],"categories_sizes":[],"default_left":[0,0,0,0,0],"id":109,"left_children":[1,-1,3,-1,-1],"loss_changes":[3.3749935E1,0E0,6.838583E0,0E0,0E0],"parents":[2147483647,0,0,2,2],"right_children":[2,-1,4,-1,-1],"split_conditions":[1.3489815E0,-4.5779042E-2,3.1534474E0,-2.7171573E-2,4.609203E-2],"split_indices":[35,0,18,0,0],"split_type":[0,0,0,0,0],"sum_hessian":[4.4908306E1,2.0472534E1,2.4435772E1,2.3347883E0,2.2100985E1],"tree_param":{"num_deleted":"0","num_feature":"104","num_nodes":"5","size_leaf_vector":"1"}},{"base_weights":[-2.0159474E-2,-4.5585494E-2,7.479233E-1,-2.6473463E-2,4.5869607E-2],"categories":[],"categories_nodes":[],"categories_segments":[],"categories_sizes":[],"default_left":[0,0,0,0,0],"id":110,"left_children":[1,-1,3,-1,-1],"loss_changes":[3.1974813E1,0E0,6.407732E0,0E0,0E0],"parents":[2147483647,0,0,2,2],"right_children":[2,-1,4,-1,-1],"split_conditions":[1.3489815E0,-4.5585494E-2,3.1534474E0,-2.6473463E-2,4.5869607E-2],"split_indices":[35,0,18,0,0],"split_type":[0,0,0,0,0],"sum_hessian":[4.2701706E1,1.9589384E1,2.3112322E1,2.209484E0,2.0902838E1],"tree_param":{"num_deleted":"0","num_feature":"104","num_nodes":"5","size_leaf_vector":"1"}},{"base_weights":[-2.343553E-2,-4.5329615E-2,7.3365563E-1,-2.6592761E-2,4.5622766E-2],"categories":[],"categories_nodes":[],"categories_segments":[],"categories_sizes":[],"default_left":[0,0,0,0,0],"id":111,"left_children":[1,-1,3,-1,-1],"loss_changes":[2.973428E1,0E0,6.39625E0,0E0,0E0],"parents":[2147483647,0,0,2,2],"right_children":[2,-1,4,-1,-1],"split_conditions":[1.3489815E0,-4.5329615E-2,3.1534474E0,-2.6592761E-2,4.5622766E-2],"split_indices":[35,0,18,0,0],"split_type":[0,0,0,0,0],"sum_hessian":[4.048092E1,1.8502535E1,2.1978386E1,2.2319417E0,1.9746443E1],"tree_param":{"num_deleted":"0","num_feature":"104","num_nodes":"5","size_leaf_vector":"1"}},{"base_weights":[-1.4447494E-2,-4.5163162E-2,7.399861E-1,-2.5727782E-2,4.5529824E-2],"categories":[],"categories_nodes":[],"categories_segments":[],"categories_sizes":[],"default_left":[0,0,0,0,0],"id":112,"left_children":[1,-1,3,-1,-1],"loss_changes":[2.9035986E1,0E0,5.954671E0,0E0,0E0],"parents":[2147483647,0,0,2,2],"right_children":[2,-1,4,-1,-1],"split_conditions":[1.3489815E0,-4.5163162E-2,3.1534474E0,-2.5727782E-2,4.5529824E-2],"split_indices":[35,0,18,0,0],"split_type":[0,0,0,0,0],"sum_hessian":[3.9308006E1,1.7865593E1,2.1442415E1,2.0842733E0,1.935814E1],"tree_param":{"num_deleted":"0","num_feature":"104","num_nodes":"5","size_leaf_vector":"1"}},{"base_weights":[-5.172166E-3,-4.495073E-2,7.386435E-1,-2.5421659E-2,4.542642E-2],"categories":[],"categories_nodes":[],"categories_segments":[],"categories_sizes":[],"default_left":[0,0,0,0,0],"id":113,"left_children":[1,-1,3,-1,-1],"loss_changes":[2.796037E1,0E0,5.7884445E0,0E0,0E0],"parents":[2147483647,0,0,2,2],"right_children":[2,-1,4,-1,-1],"split_conditions":[1.3489815E0,-4.495073E-2,3.1534474E0,-2.5421659E-2,4.542642E-2],"split_indices":[35,0,18,0,0],"split_type":[0,0,0,0,0],"sum_hessian":[3.8057316E1,1.7095896E1,2.0961422E1,2.0352929E0,1.8926128E1],"tree_param":{"num_deleted":"0","num_feature":"104","num_nodes":"5","size_leaf_vector":"1"}},{"base_weights":[-3.584863E-2,-4.4730168E-2,7.196968E-1,4.490563E-2,-2.3608191E-2],"categories":[],"categories_nodes":[],"categories_segments":[],"categories_sizes":[],"default_left":[0,0,0,0,0],"id":114,"left_children":[1,-1,3,-1,-1],"loss_changes":[2.549713E1,0E0,5.304634E0,0E0,0E0],"parents":[2147483647,0,0,2,2],"right_children":[2,-1,4,-1,-1],"split_conditions":[1.3489815E0,-4.4730168E-2,4.248698E-2,4.490563E-2,-2.3608191E-2],"split_indices":[35,0,15,0,0],"split_type":[0,0,0,0,0],"sum_hessian":[3.5312557E1,1.6355152E1,1.8957405E1,1.6917814E1,2.0395908E0],"tree_param":{"num_deleted":"0","num_feature":"104","num_nodes":"5","size_leaf_vector":"1"}},{"base_weights":[-2.5396405E-2,-4.4492036E-2,7.166767E-1,4.4797793E-2,-2.3365695E-2],"categories":[],"categories_nodes":[],"categories_segments":[],"categories_sizes":[],"default_left":[0,0,0,0,0],"id":115,"left_children":[1,-1,3,-1,-1],"loss_changes":[2.4496809E1,0E0,5.2071323E0,0E0,0E0],"parents":[2147483647,0,0,2,2],"right_children":[2,-1,4,-1,-1],"split_conditions":[1.3489815E0,-4.4492036E-2,3.875786E-2,4.4797793E-2,-2.3365695E-2],"split_indices":[35,0,69,0,0],"split_type":[0,0,0,0,0],"sum_hessian":[3.4199604E1,1.561332E1,1.8586285E1,1.6564627E1,2.0216572E0],"tree_param":{"num_deleted":"0","num_feature":"104","num_nodes":"5","size_leaf_vector":"1"}},{"base_weights":[-2.678865E-2,-4.4280525E-2,7.0971864E-1,4.458363E-2,-2.273976E-2],"categories":[],"categories_nodes":[],"categories_segments":[],"categories_sizes":[],"default_left":[0,0,0,0,0],"id":116,"left_children":[1,-1,3,-1,-1],"loss_changes":[2.3335281E1,0E0,5.027768E0,0E0,0E0],"parents":[2147483647,0,0,2,2],"right_children":[2,-1,4,-1,-1],"split_conditions":[1.3489815E0,-4.4280525E-2,3.977331E-2,4.458363E-2,-2.273976E-2],"split_indices":[35,0,74,0,0],"split_type":[0,0,0,0,0],"sum_hessian":[3.290469E1,1.5004013E1,1.7900679E1,1.5886953E1,2.0137248E0],"tree_param":{"num_deleted":"0","num_feature":"104","num_nodes":"5","size_leaf_vector":"1"}},{"base_weights":[-2.734392E-2,-4.4038218E-2,7.044709E-1,4.432042E-2,-2.1008408E-2],"categories":[],"categories_nodes":[],"categories_segments":[],"categories_sizes":[],"default_left":[0,0,0,0,0],"id":117,"left_children":[1,-1,3,-1,-1],"loss_changes":[2.215953E1,0E0,4.6617928E0,0E0,0E0],"parents":[2147483647,0,0,2,2],"right_children":[2,-1,4,-1,-1],"split_conditions":[1.3489815E0,-4.4038218E-2,4.248698E-2,4.432042E-2,-2.1008408E-2],"split_indices":[35,0,15,0,0],"split_type":[0,0,0,0,0],"sum_hessian":[3.149408E1,1.4351141E1,1.7142939E1,1.5120492E1,2.0224466E0],"tree_param":{"num_deleted":"0","num_feature":"104","num_nodes":"5","size_leaf_vector":"1"}},{"base_weights":[-3.2674156E-2,-4.3803062E-2,6.917809E-1,4.406317E-2,-2.10318E-2],"categories":[],"categories_nodes":[],"categories_segments":[],"categories_sizes":[],"default_left":[0,0,0,0,0],"id":118,"left_children":[1,-1,3,-1,-1],"loss_changes":[2.0890993E1,0E0,4.6288834E0,0E0,0E0],"parents":[2147483647,0,0,2,2],"right_children":[2,-1,4,-1,-1],"split_conditions":[1.3489815E0,-4.3803062E-2,3.8082343E-2,4.406317E-2,-2.10318E-2],"split_indices":[35,0,15,0,0],"split_type":[0,0,0,0,0],"sum_hessian":[3.0207916E1,1.376482E1,1.6443096E1,1.4405019E1,2.038077E0],"tree_param":{"num_deleted":"0","num_feature":"104","num_nodes":"5","size_leaf_vector":"1"}},{"base_weights":[-1.9659458E-2,-4.3584E-2,6.9398546E-1,-2.0183077E-2,4.39964E-2],"categories":[],"categories_nodes":[],"categories_segments":[],"categories_sizes":[],"default_left":[0,0,0,0,0],"id":119,"left_children":[1,-1,3,-1,-1],"loss_changes":[2.0376724E1,0E0,4.4388027E0,0E0,0E0],"parents":[2147483647,0,0,2,2],"right_children":[2,-1,4,-1,-1],"split_conditions":[1.3489815E0,-4.3584E-2,3.3256655E0,-2.0183077E-2,4.39964E-2],"split_indices":[35,0,18,0,0],"split_type":[0,0,0,0,0],"sum_hessian":[2.9522354E1,1.3254688E1,1.6267666E1,2.017322E0,1.4250344E1],"tree_param":{"num_deleted":"0","num_feature":"104","num_nodes":"5","size_leaf_vector":"1"}},{"base_weights":[-2.2098802E-2,-4.3312386E-2,6.869018E-1,4.369645E-2,-1.9000834E-2],"categories":[],"categories_nodes":[],"categories_segments":[],"categories_sizes":[],"default_left":[0,0,0,0,0],"id":120,"left_children":[1,-1,3,-1,-1],"loss_changes":[1.9254026E1,0E0,4.1601267E0,0E0,0E0],"parents":[2147483647,0,0,2,2],"right_children":[2,-1,4,-1,-1],"split_conditions":[1.3489815E0,-4.3312386E-2,3.8082343E-2,4.369645E-2,-1.9000834E-2],"split_indices":[35,0,15,0,0],"split_type":[0,0,0,0,0],"sum_hessian":[2.818197E1,1.2662361E1,1.5519609E1,1.3512656E1,2.0069532E0],"tree_param":{"num_deleted":"0","num_feature":"104","num_nodes":"5","size_leaf_vector":"1"}},{"base_weights":[-2.7433597E-2,-4.30308E-2,6.731303E-1,4.3391023E-2,-1.9035846E-2],"categories":[],"categories_nodes":[],"categories_segments":[],"categories_sizes":[],"default_left":[0,0,0,0,0],"id":121,"left_children":[1,-1,3,-1,-1],"loss_changes":[1.8047224E1,0E0,4.115928E0,0E0,0E0],"parents":[2147483647,0,0,2,2],"right_children":[2,-1,4,-1,-1],"split_conditions":[1.3489815E0,-4.30308E-2,5.3392284E-2,4.3391023E-2,-1.9035846E-2],"split_indices":[35,0,77,0,0],"split_type":[0,0,0,0,0],"sum_hessian":[2.6933844E1,1.2093769E1,1.4840075E1,1.2823985E1,2.01609E0],"tree_param":{"num_deleted":"0","num_feature":"104","num_nodes":"5","size_leaf_vector":"1"}},{"base_weights":[-1.8094297E-2,-4.2750344E-2,6.7012936E-1,4.32456E-2,-1.8257853E-2],"categories":[],"categories_nodes":[],"categories_segments":[],"categories_sizes":[],"default_left":[0,0,0,0,0],"id":122,"left_children":[1,-1,3,-1,-1],"loss_changes":[1.734382E1,0E0,3.969696E0,0E0,0E0],"parents":[2147483647,0,0,2,2],"right_children":[2,-1,4,-1,-1],"split_conditions":[1.3489815E0,-4.2750344E-2,3.7367836E-2,4.32456E-2,-1.8257853E-2],"split_indices":[35,0,68,0,0],"split_type":[0,0,0,0,0],"sum_hessian":[2.6122168E1,1.1569017E1,1.455315E1,1.25256605E1,2.0274892E0],"tree_param":{"num_deleted":"0","num_feature":"104","num_nodes":"5","size_leaf_vector":"1"}},{"base_weights":[-2.8086506E-2,-4.2469915E-2,6.5984553E-1,4.2824104E-2,-1.7174419E-2],"categories":[],"categories_nodes":[],"categories_segments":[],"categories_sizes":[],"default_left":[0,0,0,0,0],"id":123,"left_children":[1,-1,3,-1,-1],"loss_changes":[1.6252106E1,0E0,3.6857147E0,0E0,0E0],"parents":[2147483647,0,0,2,2],"right_children":[2,-1,4,-1,-1],"split_conditions":[1.3489815E0,-4.2469915E-2,3.61668E-2,4.2824104E-2,-1.7174419E-2],"split_indices":[35,0,68,0,0],"split_type":[0,0,0,0,0],"sum_hessian":[2.4780504E1,1.1081292E1,1.3699213E1,1.1699112E1,2.0001016E0],"tree_param":{"num_deleted":"0","num_feature":"104","num_nodes":"5","size_leaf_vector":"1"}},{"base_weights":[-1.4288563E-2,-4.212795E-2,6.6402304E-1,4.2621177E-2,-1.4803985E-2],"categories":[],"categories_nodes":[],"categories_segments":[],"categories_sizes":[],"default_left":[0,0,0,0,0],"id":124,"left_children":[1,-1,3,-1,-1],"loss_changes":[1.5654958E1,0E0,3.2799878E0,0E0,0E0],"parents":[2147483647,0,0,2,2],"right_children":[2,-1,4,-1,-1],"split_conditions":[1.3489815E0,-4.212795E-2,6.267639E-2,4.2621177E-2,-1.4803985E-2],"split_indices":[35,0,76,0,0],"split_type":[0,0,0,0,0],"sum_hessian":[2.3872805E1,1.0530264E1,1.3342542E1,1.1341343E1,2.001199E0],"tree_param":{"num_deleted":"0","num_feature":"104","num_nodes":"5","size_leaf_vector":"1"}},{"base_weights":[-2.6707524E-2,-6.9286954E-1,4.0623322E-2,2.0919284E-3,-4.147652E-2],"categories":[],"categories_nodes":[],"categories_segments":[],"categories_sizes":[],"default_left":[0,0,0,0,0],"id":125,"left_children":[1,3,-1,-1,-1],"loss_changes":[1.4932338E1,1.5601788E0,0E0,0E0,0E0],"parents":[2147483647,0,0,1,1],"right_children":[2,4,-1,-1,-1],"split_conditions":[2.0234723E0,-1.1350899E0,4.0623322E-2,2.0919284E-3,-4.147652E-2],"split_indices":[35,34,0,0,0],"split_type":[0,0,0,0,0],"sum_hessian":[2.2697376E1,1.2847402E1,9.849975E0,2.2325575E0,1.0614844E1],"tree_param":{"num_deleted":"0","num_feature":"104","num_nodes":"5","size_leaf_vector":"1"}},{"base_weights":[-3.851822E-2,-5.7729775E-1,3.74096E-2,-7.137558E-1,8.037176E-3,-8.422329E-3,-3.9114732E-2],"categories":[],"categories_nodes":[],"categories_segments":[],"categories_sizes":[],"default_left":[0,0,0,0,0,0,0],"id":126,"left_children":[1,3,-1,5,-1,-1,-1],"loss_changes":[1.10141325E1,1.7745886E0,0E0,2.3412418E-1,0E0,0E0,0E0],"parents":[2147483647,0,0,1,1,3,3],"right_children":[2,4,-1,6,-1,-1,-1],"split_conditions":[1.5971402E0,3.6E1,3.74096E-2,-9.394475E-1,8.037176E-3,-8.422329E-3,-3.9114732E-2],"split_indices":[40,13,0,34,0,0,0],"split_type":[0,0,0,0,0,0,0],"sum_hessian":[2.1947042E1,1.3342077E1,8.604964E0,1.1315703E1,2.0263746E0,2.0355783E0,9.280125E0],"tree_param":{"num_deleted":"0","num_feature":"104","num_nodes":"7","size_leaf_vector":"1"}},{"base_weights":[-1.6534597E-2,-4.1414287E-2,6.43186E-1,4.1921634E-2,-1.3721906E-2],"categories":[],"categories_nodes":[],"categories_segments":[],"categories_sizes":[],"default_left":[0,0,0,0,0],"id":127,"left_children":[1,-1,3,-1,-1],"loss_changes":[1.3779512E1,0E0,3.0083928E0,0E0,0E0],"parents":[2147483647,0,0,2,2],"right_children":[2,-1,4,-1,-1],"split_conditions":[1.3489815E0,-4.1414287E-2,3.710024E-2,4.1921634E-2,-1.3721906E-2],"split_indices":[35,0,74,0,0],"split_type":[0,0,0,0,0],"sum_hessian":[2.174107E1,9.518293E0,1.2222775E1,1.022068E1,2.0020955E0],"tree_param":{"num_deleted":"0","num_feature":"104","num_nodes":"5","size_leaf_vector":"1"}},